#ifndef COEFFS_FIXED_H_
#define COEFFS_FIXED_H_

#include "fixedp.h"

const kernel_t CONV1_W[3][3][3][64] = {
    {
        {
            {0.7761616111, -0.2484985441, 0.1605129987, 0.8505275846, -0.1343584359, 0.2223760486, 0.1816208959, 0.1528265029, 0.1341668665, 0.0962008610, 0.0456986539, -0.1081046686, 0.4640215635, 0.1036246568, 0.2113317549, -0.4686649740, 0.1910009682, 0.3347944617, 0.1081550643, 0.2535025775, 0.3688272834, -0.2864231765, 0.3643285036, -0.1829795688, -0.2246591151, -0.0859970152, 0.5679031014, -0.8843783140, 0.0782794952, -0.0615172535, -0.0192909949, -0.2990659475, 0.2880934477, -0.1810380071, -0.6793510914, -0.6994196773, -0.2352055907, -0.4245948493, -1.1509389877, -0.3330463767, -0.0283903480, 0.1380272955, -0.4252059758, -0.1659256220, 0.0533015616, 0.5249239206, 0.1470392495, -0.7336147428, -0.1136366799, 0.7247506380, 0.4866246283, 0.2635954022, -0.5393444896, 0.1892819256, 0.4705529213, 0.2821667194, -0.4301195145, -0.4592483640, -0.1003401205, -0.8123145103, 0.6816867590, 0.2520349324, 0.1888806075, 0.1344512254},
            {-0.3754360378, 0.1297572255, -0.6712344885, -0.0819130465, 0.3538517654, 0.3499782979, -0.4886862040, 0.2693303227, 0.1325397789, 0.0651805401, 0.1200838685, 0.0854424164, 0.0605659820, 0.3901026845, 0.3148717284, -1.0544213057, 0.5906560421, 0.4777829349, 0.1030912548, 0.1407050639, -0.5708461404, -0.0176538676, -0.5827855468, 0.2102633864, 0.4575624168, 0.6457830667, 0.0243667830, -0.0918642059, 0.1538754106, -0.3879975975, -0.2324859500, 0.1644600332, -0.1306709945, 0.3595827222, -0.2163832337, 0.3628441691, 0.2675627768, 0.6963468790, 0.9465523362, 0.5914748907, -0.2309420556, 0.0319015644, -0.1372645199, -0.1814522296, -0.5383570790, 0.3187987208, -0.4115763307, 0.1463012546, -0.5574997663, 0.6857547760, -0.1569955647, 0.1373836994, 0.5076442361, -0.2879181802, -1.1508058310, 0.2660007179, -0.0082989605, 0.1871510148, -0.0931538790, 0.1273103356, 0.2331275642, -0.2634395957, 0.0320874117, 0.2382483631},
            {-0.5900384188, -0.2208280116, 0.1851865798, -0.7655752301, 0.6467464566, -0.6804131866, -0.0032571142, -0.1307693273, -0.0107530113, 0.0558659136, -0.7089212537, 0.1332660168, -0.2071691751, 0.1014101133, 0.4016733766, -1.1589869261, -0.2475301474, -0.6180884838, 0.2779522836, -0.4115646482, -0.4963497519, -0.3301133215, 0.1314041018, 0.0958177596, -0.1681857258, -0.8227375746, -0.2185170799, 0.0751179829, -0.8690183163, -0.1811168939, 0.1333673149, -0.2130917460, 0.0615926012, 0.1078513414, 0.7936449051, 0.6129915714, 0.3019206524, -0.4162697494, 0.1375770122, -0.1101696789, -0.1768703610, -0.3775427043, -0.1552266330, -0.5776054263, -0.3840850294, -0.2004565448, 0.3696274757, 0.3570975959, -0.1293264627, 0.5129109025, 0.3621213436, -0.1052152291, 0.0116793150, -0.0666345954, 0.7712562084, -0.5715625286, -0.1385627985, -0.2648858130, -0.0983139873, 0.2773950994, 0.2541725636, -0.0149430595, 0.1319849789, -0.3159921765},
        },
        {
            {0.9606727362, 0.5329026580, 0.1823263466, -0.0735485926, -0.2277050167, 0.2014367133, -0.0089564966, 0.4670834839, -0.0685884506, -0.6397858262, -0.1554922909, 0.0386742800, 0.9144732952, 0.4106863141, 0.1703279167, 0.7594502568, -0.6617560387, 0.3742727637, -0.3813616335, 0.2607405484, 0.2942605019, -0.3867898285, 0.0776772648, -0.3054481745, -0.1249499545, 0.7502856255, 0.6769955158, 1.0996254683, -0.2431405783, 0.0738672912, 0.6721776128, 0.5470482707, -0.9282770753, 0.2754090428, -0.3657428622, 0.4716771245, -0.8134703636, -0.2496663332, -1.6476943493, -1.2690819502, -0.0956639722, 0.0628947020, -0.4682980478, 0.1491557658, 0.2016558349, -0.1069761440, 1.1232734919, -0.5278543830, -0.0751667693, -0.8889014125, -0.1955646724, -0.2763723731, -0.4971048236, 0.8858073950, 0.3601172566, -0.2053924054, 0.0141184973, -0.3910441995, -0.0811052024, -0.8294351697, -0.1340615004, 0.8728957176, 0.2397536486, 0.3336029649},
            {-0.2355460525, 0.2777488530, -0.0975284800, -0.0361909047, -0.0404979438, 0.3629438579, -0.1091915295, 0.4260698259, 0.0776030272, 0.5335224271, 0.0967009738, -0.5365259051, 0.4699165523, -0.3028975427, 0.1606688499, 0.2249090821, -0.5009595752, 0.2976488173, -0.1977940649, 0.1637733877, -0.4944117963, -1.0191168785, -0.7021635771, -0.0520233288, 0.2767131031, 0.2664800286, -0.0085969130, 0.1999062151, 0.6810919642, 0.0264081284, 0.3713310957, 1.0964372158, -0.0447812267, 0.2231030613, -0.4290017188, -0.1727200747, -0.3206269443, 0.7758747935, 1.1436175108, 0.4698172510, -0.3760062754, -0.3398974538, -0.1288158149, -0.2490985990, 0.1542761624, -0.1346597075, -1.0538119078, 0.3279059529, -0.0162469111, -1.1524376869, -0.0143943653, -0.7589398026, 0.4936369359, -0.6589936614, -0.3829070926, -0.1211429089, 0.2650803924, 0.1500049382, -0.3201987147, 0.1784979999, -0.4100501239, -0.1485614628, 0.1870410591, -0.0963920131},
            {-1.0230404139, 0.2144834399, 0.1814533174, 0.1456117332, -0.3382250071, -0.5698521733, 0.0179515891, 0.2167465985, -0.6567291021, 0.4221111834, -0.4454170763, -0.0043030391, -0.5121855140, 0.3556778729, 0.4119491875, 0.0278784391, -0.7404559255, -0.5538360476, 0.3193185031, -0.3408985138, -0.3201974034, 0.3474438488, -0.2601000965, 0.1523538828, 0.3721006811, -0.5607072711, -0.0520809218, 0.3221611679, -0.3675473928, 0.4394479096, 0.1149724573, 0.1510624886, -0.3988989890, 0.5778000951, 0.4116220176, -0.3754749298, 0.0121243801, -0.2045876086, 0.5292922854, 0.6615905166, -0.2385184616, 0.3910014331, -0.0595473424, -0.3446506262, 0.0648552850, 0.2688103020, -0.8316484690, 0.1121961176, 0.5647066236, -0.4614173174, -0.6179757714, 0.1880482137, -0.0314943977, -0.1582913846, 0.0346839353, 0.4668016434, 0.2620416582, 0.0074117961, -0.4269632399, 0.3166496754, -0.0303269550, 0.6273396611, -0.0651236922, -0.5739347935},
        },
        {
            {0.5013308525, -0.1145591363, -0.3647924662, -0.3606807590, -0.2094043493, 0.1565365046, -0.1297446042, 0.1353648007, -0.4563064575, -0.2715334594, 0.2192902863, 0.2074313760, 0.7026280165, -0.4386150837, -0.1046442911, -0.0307850968, 0.4364266992, -0.5724317431, -0.1030873358, 0.4543415308, 0.1177660450, 1.1342122555, -0.0329544172, -0.2555223703, 0.3796724379, 0.0702002347, -0.1352719367, -0.5501735210, -0.1475811005, 0.0578781627, -0.6684578657, -0.5597189665, -0.1644179970, 0.0090807658, 0.2505036891, 1.0030765533, 0.3519035280, -0.2791729271, -0.9597531557, 0.4039795995, 0.0222488455, -0.0519331135, -0.3763530850, 0.7400535345, 0.1510556489, -0.5442521572, -0.4181665480, 0.0973225161, -0.1280416399, 1.0438729525, -0.1268394589, 0.3250170052, -0.6071735024, 0.2041424215, 0.5504970551, -0.8367512822, -0.3440511823, 0.8681174517, -0.0749045908, -0.7338138819, -0.8572872877, -0.1237918958, 0.5317792892, 0.2859475315},
            {-0.1456470639, -0.1384319216, 0.4182899594, 0.1181290969, 0.1863558739, 0.6558308005, -0.2079978734, 0.5820069313, 0.1405606568, 0.6663490534, -0.2147392631, -0.5118703842, 0.0413589925, -0.2987265289, -0.1777796596, 0.4583903551, 0.3626158237, 0.2750181258, 0.1154653430, 0.1333319992, 0.0009033771, 0.2977796495, -0.5215594172, 0.0603706501, -0.6517670751, 0.3610368371, -0.0636295080, -0.3327433467, 0.2770555019, 0.4294380844, 0.0567676350, -0.0688454285, 1.2135062218, -1.0426698923, -0.2304083556, -0.2666907310, 0.0809086263, 0.2889387608, 0.8798778653, -0.1113571748, -0.2956521809, -0.3258075714, -0.0482368805, -0.2697148323, 0.4820969105, -0.5261259675, 0.4660570920, 0.1324779838, -0.4668656290, -0.1170397326, 0.1744726300, 0.1117106453, 1.2094376087, -0.6166013479, -1.4650219679, -0.1845677793, -0.2197212428, 0.3046447337, -0.1731444150, -0.0643757805, -0.7723652124, -0.2427099794, 0.5655234456, -0.0000823019},
            {-0.9908240438, -0.1482766867, -0.3622502387, 0.2948571742, 0.2982880175, -0.7350226641, 0.3239552379, -0.1848917007, -0.2543151081, -0.2648732066, 0.5191833377, 0.0957279205, -0.7119922042, -0.5275259614, 0.3866526783, -0.0758771151, 0.5446950793, 0.2069980502, 0.2571417689, -0.4701122344, 0.3615498841, 0.2797769606, -0.4750238061, 0.4946006835, -0.3176755905, -0.2890188098, -0.1235531271, 0.1162745878, 0.1868526489, 0.2456540018, -0.3092768788, -0.1441876143, -0.1570762098, -0.4351390898, 0.2777658701, -1.1052212715, -0.2351514846, -0.2649391294, 0.1358141005, -0.3424376547, -0.0600076206, 0.3303729296, -0.0967702419, -0.1960809231, -0.1896258742, 0.3271857500, 0.1877143532, 0.0876308158, 0.1166120917, 0.8043881655, 0.0790634155, -0.0377079993, -0.5046653152, 0.3597256243, 0.8751332760, 0.6310691237, -0.1106185243, -0.1211625412, -0.3119182587, 0.4347636402, -0.5397209525, 0.3450256884, -0.1605194807, -0.7373695970},
        },
    },
    {
        {
            {-0.0839314014, 0.8504904509, 0.3851953745, 1.1083577871, -0.2920978963, -0.3745020926, -0.1038114130, 0.1721414775, 0.1460339427, 0.5382936001, 0.2067401856, -0.3427958190, -0.9827018380, 0.3431945741, -0.6279518008, 0.1117883101, -0.7342251539, 0.1640722901, -0.2972909212, -0.0027902387, 0.3855483234, 0.4119241536, -0.0795998350, -0.0312559456, -0.3006380200, 1.0234071016, 0.5726792216, -0.5952330828, -0.0523255020, 0.0441446118, -0.7799957991, -0.4544786215, 0.7809537649, -0.2917129695, 0.2024458647, -0.8951945901, -0.9351301193, -0.2544285059, 0.5818619728, -0.8209587336, -0.2235666960, 0.0265160240, 0.3489549756, -0.2087953985, -0.1515365839, 0.2801710963, 0.3461506069, -0.6108583212, -0.0104617616, -0.3261521459, 0.1359021813, 0.0154084321, 0.9621056914, -0.3688524067, 0.0034719538, 0.6358577609, -0.5024333000, -0.4543787539, 0.0407426581, -0.3623822033, -0.0785024315, 0.0370484889, -0.2471005470, -0.6855657697},
            {-0.1981747597, 0.6568479538, -0.4409953356, -0.4088777900, -0.2331310213, -0.5483700633, -0.1479203850, 0.1311619431, 0.0047662668, -0.7626212835, 0.1844260097, 0.0016931517, -0.3263905346, -0.3309127390, -0.4656522572, -0.1581726670, -0.3694733977, 0.1796637177, -0.1066624969, 0.0391394049, 0.8287358880, 1.0520808697, -0.4095676839, 0.2581303418, 0.4637909830, 0.5698226094, -0.1073244289, 0.2943420708, 0.3937373459, 0.1779449731, -0.5856028795, -0.2053519934, -0.3360217214, -0.0131838899, 0.1050704718, 0.2683038414, -0.4780395031, 0.2665098906, -0.1069958508, 0.2679348290, -0.0138775287, -0.2402551174, 0.1257340312, 0.6019917727, -0.2312504351, 0.2721052170, -0.3094120920, 0.8075643778, -0.1297456473, -0.0384858698, -0.0236625560, 0.8627583981, -1.4668626785, 0.0493435562, -0.3261026144, 0.2166706771, 0.0157359131, 0.0681126416, 0.3722612858, 0.2903732657, -0.1286613345, 0.2029996067, -0.4912800789, 0.3494933248},
            {0.3439519703, 0.4215205312, 0.9160788059, -0.8198156357, 0.3985575140, 1.0163359642, 0.0856090635, 0.0096631218, 0.3677163720, -0.5822328925, -0.7874727249, 0.0817951411, 0.7395989895, 0.3653771281, 0.5606325865, 0.3988330662, -0.7108665705, -0.6768219471, 0.2846365273, -0.0053964937, 0.5078314543, -0.0845393538, -0.1548300236, -0.0034437003, -0.0712392777, -0.9431991577, 0.0213039778, -0.4140428603, -0.5652836561, 0.4239067137, -0.4480114579, -0.2171721607, 0.4162113369, -0.3399334848, -0.0508899540, 1.0110412836, -0.1306917369, -0.1441984326, -0.4168778062, 0.5010625124, -0.2910214663, 0.2408677787, 0.3610724807, 0.3732417226, -0.0433666743, 0.3757012188, -0.2610580027, 0.6879855394, -0.2787079811, -0.6565892696, 0.7671947479, 0.1527173668, 0.3594498932, -0.1169810742, 0.2384952754, -0.6490182281, -0.0214116052, 0.0841672793, 0.4066606164, 0.2032968104, -0.0642205179, -0.1790080965, -0.2057803422, 0.4718219340},
        },
        {
            {0.0849607587, -0.9077081680, -0.0468360633, -0.6786811948, 0.2555900216, -0.3707374930, -0.0002476490, -1.2654273510, 0.6810993552, -0.1034136787, 0.0619207062, 0.1282597333, -0.6614809632, -0.7790254951, -0.4416163564, 0.1972181350, 1.1416064501, 0.2651126385, -0.2452774495, -0.0645792484, 0.2398983091, -0.6398157477, -0.1681269258, -0.0797960311, -0.1508806199, 0.0475938506, -0.0603342727, 1.0487746000, -0.2975893617, 0.1878797412, 0.3376645148, -0.1237401143, 0.5500575900, 0.0524069965, 0.4120261669, -0.2676502168, 0.4540484548, -0.5478817225, 0.3209525347, -0.7537882924, 0.1975468546, 0.0235512387, 0.0658017024, -0.5389768481, 0.0246955976, -0.3656375110, 0.4404219985, 0.0842338130, 0.2706147134, 0.3635107577, -0.0677410290, -0.6040958166, 0.5216028094, 1.1090553999, -0.8443587422, 0.1588398367, -0.7303588986, -0.4728363156, 0.1046091616, -0.4585888684, 0.2286243886, 0.0710067078, -0.5013744235, -0.3073640168},
            {-0.0770766437, -0.8510327339, -0.3386161923, 0.0111070881, 0.3061938882, -0.3596840501, 0.1032361835, -1.3656023741, 0.1249220222, -0.0160889793, -0.0431125462, 0.0221886169, -0.1898575723, -0.8540530205, -0.5094960332, 0.3395078182, 0.9038082957, -0.2294360995, -0.0556389242, 0.0474885292, 0.3951044381, -0.4372859597, 0.2156486213, 0.0817479715, 0.3321082592, -0.4049740732, -0.0701267943, 0.4312806427, 0.7821019888, 0.3306816518, -0.0977516174, 0.1909536719, 0.0914848521, 0.5783703327, 0.2132610679, -0.1163845807, -0.1268897355, 0.1200022921, 0.0012324254, -0.0442939773, 0.3348432481, -0.6201828718, 0.1285900772, -0.0593849309, 0.2045064867, -0.3416734338, -0.4137996733, 0.4234670699, 0.5315810442, 0.5728731751, -0.1359696239, -0.7785570621, -1.0661110878, -0.3587878048, 2.0003566742, -0.2604483068, -0.1053380892, -0.0351264216, 0.7348417640, 0.2936880291, 0.0218286831, -0.1622311473, -0.3588039577, 0.1271794289},
            {-0.2119675279, -0.3126667738, -0.6160528064, 0.7229141593, 0.3468816280, 0.9763570428, 0.2053454518, -0.5538508296, 0.1262641400, 0.3100620508, -0.3038546741, 0.2694942355, 0.4702298045, -0.5901864171, -0.0473576896, 0.6008093953, 1.4849812984, -0.6619071960, 0.4494616985, -0.1360123456, -0.1862600595, 0.0893208012, 0.0102060121, -0.0860862955, 0.5590545535, 0.2975588441, 0.1917895228, 0.0692141429, 0.5019398332, 0.3346391618, 0.5630419254, -0.1153551564, 0.4476247430, 0.5543391705, -0.2704830170, 0.3513120711, 0.1077453643, -0.1214411929, -0.3017594516, 0.7440770268, 0.3359903991, 0.8492426872, 0.4116091132, -0.0555416718, 0.2549166679, 0.1072583795, -0.4176495373, -0.0024264685, 0.5195433497, 0.3660058677, -0.5416666865, -0.1971396655, 0.3856612146, -0.3970625997, -1.2710472345, 0.1024619564, -0.2967107594, 0.1808544844, 0.4972050488, 0.1548579633, 0.4857937694, 0.0780765191, 0.1579210907, 0.4788095355},
        },
        {
            {-0.2369989455, -0.0484563261, -0.3925626874, -0.7497556806, -0.2422325909, -0.2128688246, -0.0034791462, 0.1347897798, 0.1364966929, -1.0040371418, 0.1803195029, 0.2049970031, 0.6676084399, 0.3516065776, -0.1218745261, -0.6241058707, -0.5512717366, -0.0984289274, 0.1255961955, 0.0431026854, -0.3192061782, -0.2671963274, -0.0493190959, -0.0914065167, 0.4774703681, -0.2559724450, -1.0290900469, -0.4679243863, -0.1784607321, -0.0775025487, 0.5617122054, -0.2294118106, -1.1171743870, -0.2324596047, 0.3594674468, 0.8807171583, 0.7708804011, 0.1177170500, 0.2534726262, 1.1639803648, -0.2545768619, 0.0612003691, 0.0472067520, 0.2894573212, -0.1197884977, -0.0671028122, -1.0344626904, 0.4222026765, 0.0890363082, 0.2690864503, -0.0112975985, 0.2124256343, -0.3665575683, 0.5198118687, -0.2824138701, -0.6874213219, -0.2306697965, 0.6812562943, 0.1247320250, -0.4148008227, 0.5006656051, 0.0526225790, -0.6922541261, -0.1325198710},
            {0.1729985774, 0.0331506543, 1.2198613882, 0.4269825518, 0.1617405564, 0.0044712061, -0.1482520700, 0.0490492135, -0.1773272008, 0.9352787137, -0.3369602561, -0.2571894526, 0.1684534401, 1.0607095957, -0.3415274620, 0.0980788618, -0.8273482919, 0.1536008865, -0.1272734553, 0.0980154648, 0.0205945186, -0.9749903679, 0.5452907681, -0.0574391820, -0.6517076492, -0.2380110919, -0.1328929961, -0.1106544510, -0.4552727342, -0.1084127948, 0.4565481246, -0.1652758569, 0.0990664735, -0.2934212983, -0.0192705151, -0.1901868880, 0.0997857824, 0.0644135401, -0.1637280583, -0.5824438930, -0.0946531072, -0.4463309050, 0.1045902222, -0.2820254266, 0.2148396373, -0.1004208699, 1.1245737076, -0.3425474763, -0.2092452198, -0.6058333516, 0.1910308450, 0.6448760629, 0.6310388446, -0.5042188764, 0.3784038723, -0.1742592752, 0.0338188782, -0.1728612185, 0.7240685225, 0.0901121870, -0.0649800822, -0.0670856014, -0.7245370746, -0.0099959243},
            {0.1663971990, -0.0910729915, -0.3722832203, 0.3628154397, 0.5061826706, 0.1280872226, -0.0007580722, -0.0053516375, -0.8785840869, 0.8812299967, 0.2663311064, 0.4734209180, -0.3219763041, 0.1999187171, -0.0289283749, -0.0726074725, -0.3811745942, 0.1323243678, -0.3638231754, -0.0913418755, 0.2119204551, 0.3260014951, 0.0467592254, 0.0067160050, -0.3251329660, 0.3258054256, 0.0593109243, -0.3032193184, 0.4787698388, -0.4707365930, -0.0997348800, -0.1281297952, -0.7086657286, 0.0370769389, 0.0406381860, -0.9206101894, 0.0824693367, 0.2507980466, -0.1058890074, -0.3039181828, 0.1401901543, 0.3736022115, 0.2975313663, -0.0538713075, 0.0647297427, -0.2446610183, 0.6733205914, -0.5568791628, -0.1095669642, -0.2925036550, -0.1910870820, 0.1475299597, -0.3335532844, -0.2197355181, -0.1154061332, 0.7330806851, 0.0690555125, -0.3267699778, 0.5522412062, 0.2000503242, 0.1083316952, 0.0629022121, -0.1921510100, 0.1569397599},
        },
    },
    {
        {
            {-0.7019474506, -0.2221180350, -0.6644983292, 1.3703894615, 0.1926342994, -0.0528255403, -0.0566490553, 0.3549329340, -0.4397750795, 0.7616409063, -0.1823933274, -0.0300388671, -0.1840445548, -0.0774561316, 0.3073253632, -0.0119302245, 0.2753437459, -0.2195958495, -0.4035759866, -0.3468089700, -1.0606238842, -0.2242582738, -0.0019717824, -0.3399351537, -0.3213101625, -0.5204976797, 0.3189977407, -0.2430501878, 0.2787822485, -0.1662136763, 0.3703409433, 0.0858094320, -0.4645727277, -0.1046814993, 0.8835608959, -0.2244314700, 0.6433069706, 0.3232834041, 0.7655963302, -0.1894721985, -0.4981586337, 0.0295967627, 0.5511521697, -0.0867039636, -0.1152433306, -1.0581803322, 0.0031445178, -0.6859593987, -0.2210751176, -0.3830358684, -0.0881358013, 0.1797493845, 1.1905856133, -1.0867686272, 0.0750292987, 0.6046687961, 0.5379948616, -0.5251708031, 0.0909130946, 0.3769564927, -0.2276905179, -0.2684246600, 0.2530462146, -0.5613699555},
            {0.1130851060, -0.2715982497, -1.2887643576, -0.6754366159, -0.3318961859, -0.6710056663, -0.1086784154, 0.1027617976, -0.1227058545, -0.4503769577, 0.1351437122, 0.0574207418, 0.1131733954, -0.7076201439, -0.3128027022, 0.0609535500, 0.4726739526, 0.2594705224, 0.0456461273, 0.0241918210, -0.0056001376, 0.2702965736, 0.0253300555, -0.0258142240, 0.5111340284, -0.0176833533, -0.0451136418, -0.0594680123, -0.0360474512, 0.3525405526, 1.2277692556, 0.0347622633, -0.6727632880, -0.1131092384, 0.5703343153, 0.1769430786, -0.1421836913, 0.3127516210, -0.9405910373, -0.0365662500, -0.3245177269, -0.2612237036, 0.0674458817, 0.7646709085, -0.6155658364, -0.4295690358, -0.1926596910, 0.4726495445, -0.1644556820, -0.0976060927, 0.0451797210, 0.6023716331, -1.7266587019, 0.8849011660, -0.2838020921, 0.4973971546, 0.2727284729, 0.1701700389, -0.3580555916, -0.0174602624, 0.2173875868, 0.4227495790, 0.3889790177, 0.1833120584},
            {0.6892462373, -0.3470349908, 0.6381055117, -0.8749945164, -0.7358564734, 0.6747286320, -0.2026241124, 0.0336832404, 0.2657433748, -0.3675387800, -0.3384951651, 0.4248397946, 0.2089967877, -0.1721931845, -0.2249154150, 0.4743789434, 0.5333420038, -0.0843673870, 0.4795399010, 0.3843562603, -0.2515814602, -0.5420916677, -0.2248520255, -0.1210554838, -0.2143991590, 0.3256047070, 0.0133234430, -0.1616777629, 0.0557301752, 0.0787807629, 0.0189665779, 0.2735978365, -0.0296072476, -0.5566148162, -0.7667754889, 0.3494721055, 0.0370076559, 0.1228095070, 0.1309661418, 0.2647880316, -0.6003977060, 0.1364149600, -0.0884070024, 0.2208077312, -0.1760717779, 0.1082858518, -0.0201059096, 0.3270901442, -0.3864782751, -0.3127215505, 0.4324798882, 0.0959931687, 0.6792706847, 0.2879326642, 0.2354906499, -0.7311704755, 0.0385998972, 0.0879336372, -0.1332526952, -0.5037359595, 0.0582374707, -0.2047153860, -0.0724048615, 0.1300532669},
        },
        {
            {-0.4982360303, -0.0983766839, 1.3537291288, -0.9281941652, 0.3124441504, -0.3478350937, -0.1078024954, -0.0459278747, -0.1928357482, 0.7583816648, -0.2891426682, -0.0163536984, -0.8927027583, 0.2879866064, 0.4294372201, -0.1143838689, -0.4424386322, -0.2699127197, 0.5452058911, 0.2438347936, -0.2933216691, 0.4399056435, -0.0276968088, -0.0019662809, -0.3508503139, -0.9527080655, -0.5795958638, 0.6737516522, -0.0729663298, 0.0861263946, -0.8003948331, -0.2191693932, 0.6128994226, -0.0535122678, 0.4232875407, -0.3544538915, 0.8844948411, -0.4677859247, 0.9782131910, 0.5387905240, 0.1873124689, 0.1159063429, -0.0410694629, -0.2527889609, 0.0645690262, -0.1770441681, 0.0362350941, 0.1198277846, 0.0807894394, 0.1113560498, -0.1144697294, -0.5719516873, 0.7527627349, -0.2007112950, -0.9521640539, 0.4046272635, 0.6267796755, -0.6856859922, -0.0667517409, 0.6085135937, -0.0013928761, -0.1235178635, 0.0001061237, -0.2710693777},
            {0.3688130975, 0.0192192756, 0.3327432275, 0.1563115567, -0.2623671889, -0.6478567123, -0.1854390502, -0.5359364152, -0.1342332512, -0.7256405950, -0.1161980405, -0.2728377283, -0.1665552109, 0.6580007076, 0.4325352013, 0.1540086865, -0.9485980272, -0.0989383459, 0.3614738882, 0.8793854713, 0.3391485810, 1.0605018139, 0.6320468187, 0.2955504060, 0.0242791325, -0.9397851825, -0.2148169130, -0.0695751160, -0.3823373020, -0.1619268954, -1.0612044334, -0.1893002391, -0.5552337170, 0.3778336048, 0.2179212868, -0.0403822586, 0.1659208238, -0.2766078115, -0.9225026965, -0.3528520763, 0.4796964526, -0.5290793777, -0.2129216045, 0.4666562080, -0.1669247448, 0.0701081455, 0.0976279378, -0.3218208253, 0.4959362149, 0.4105536640, 0.0141181834, -1.0060247183, -1.2963644266, 0.1768165231, 2.3186435699, -0.0784565359, 0.3144355416, -0.0522728413, -0.6225996017, 0.0041214670, 0.1773629785, 0.2473614663, 0.3345317841, 0.1306485087},
            {0.5805483460, 0.3635927737, 0.4446543455, 1.0360182524, -0.9276512861, 0.8782420158, -0.4423979521, 0.1670387238, 0.5448268056, -0.8288015723, 0.6722462773, 0.0675371066, 0.8136795163, 0.3701451719, -0.4842656851, 0.1098782346, -0.3181026578, 0.1227257326, 0.3997523487, 0.9345847964, -0.1646052301, -0.0359266102, -0.2314288318, 0.1865649670, 0.7810283899, 1.2507104874, -0.0081016514, 0.1820073128, 0.5719519258, -0.5472720861, -0.3971723914, 0.1768596321, 0.3030033112, -0.1665627956, -0.7575237155, 0.4138231575, -0.0840165988, -0.1530303657, -0.0402853042, -0.1396061331, 0.5647854209, 0.5915102363, -0.4587379396, 0.2676277757, 0.3732716143, -0.0232415237, 0.3031018376, -0.7008113265, 0.5406762958, 0.4683300257, 0.0790660754, -0.3359947205, 0.5735729337, -0.0863559097, -1.4968283176, -0.3705956936, 0.0523340777, 0.3554835916, -0.2216185778, -0.5084277987, 0.0570721701, -0.0689455569, 0.1814141273, 0.0628211498},
        },
        {
            {-0.8312696815, 0.2531833351, -0.6511813998, -0.5221053362, -0.0923550576, 0.4828534722, 0.1107593104, 0.2502920330, 0.1886789650, -0.2831840217, 0.1435653269, 0.1286611110, 0.0463108718, -0.2250795513, 0.1651799828, -0.2816573381, 0.3469838202, -0.3640584946, 0.2600771487, -0.3608683050, -0.3630139232, -0.0081728064, -0.1244367436, -0.3864851892, 0.5747080445, -0.0390405394, -0.2961095273, -0.1208753809, 0.4577544928, -0.0230434518, 0.3918370605, 0.1812987924, 0.3381359875, 0.0481675118, -0.3062709272, 0.2077100426, -0.7789027095, 0.4547622502, 0.9533720613, 1.5997697115, -0.3667015433, 0.0278140213, 0.4563891292, -0.2833380103, -0.0913435593, 0.9694777131, -0.9385947585, 0.6479278207, -0.0431700423, -0.2736625373, -0.0450648218, 0.5750751495, -0.6865442991, -0.4617696106, -0.3218479753, -0.3750209212, 0.6095986366, 0.6757286787, 0.0185467638, 0.6096346974, 0.3775410652, -0.1648497730, 0.1625371128, -0.2268317789},
            {0.1909033656, 0.2334871739, 0.7690532207, 0.6382412314, -0.1587551832, -0.2677979767, 0.0417783819, -0.0153195579, 0.0832230374, 0.1629943848, -0.1174349114, -0.4742009342, -0.2584559917, 0.2014403045, 0.4180582166, 0.1258919835, 0.3020053208, 0.1472916454, -0.5049983263, 0.0540702529, -0.0120757986, -0.4685311317, 0.6974213123, 0.1038879156, -0.6753096581, -0.2694234848, 0.3184256554, -0.3601101339, -1.1266986132, -0.3787381053, -0.3818813264, -0.2044655979, 0.1376567781, 0.5596070886, -0.2086572498, -0.0277364329, 0.0437591262, -0.2607777417, -0.8916845322, -0.5836301446, 0.1171978936, -0.3018570244, 0.2320480049, -0.4063951969, 0.3301827908, 0.7756826878, 0.8002431393, -0.3228079379, -0.3165078759, -0.2558259070, -0.1391415745, 0.1729492694, 0.8871697783, 0.1123612449, 0.5846169591, -0.2294435054, -0.0121431826, -0.0425796807, -0.6100069880, -0.0649658367, 0.0444499925, 0.2295055240, 0.1283656657, 0.0814887732},
            {0.7384802103, 0.1667777151, -1.2552243471, -0.0991380811, -0.7940911651, -0.1083791330, -0.2261393219, 0.1611832827, 0.5283089876, 0.2120081484, 0.8322185874, 0.1001015678, -0.0988249928, -0.1808232516, -0.5936114192, -0.1921147108, -0.0695996433, 0.3170816898, -1.3623408079, 0.1957826763, 0.2415670156, -0.1276644915, -0.3357346654, 0.3227162957, -0.5900858045, 0.3650926352, -0.0904714391, 0.0847652107, -0.0305684768, -0.5659776926, 0.3813169003, 0.1046054065, 0.2217147648, 0.2803878784, -0.0949988514, -0.2873447537, -0.0268851295, 0.2865727544, -0.0387358405, -1.2230371237, 0.2798539996, 0.0624693893, -0.0060500996, -0.2068663687, 0.0133305062, -0.5310452580, 0.1143934131, -0.3719565570, -0.0476430543, -0.2571388781, -0.3582810760, 0.1822846830, -0.0957218111, 0.2567977309, -0.2661934793, 0.2663024068, -0.1474957615, -0.1315573156, -0.1645340174, -0.3244622350, -0.4298398793, -0.0134706739, 0.2295219749, 0.2869563401},
        },
    },
};

const kernel_t CONV2_W[3][3][64][32] = {
    {
        {
            {0.3308947682, -0.1104276553, 0.1521343887, -0.0141505832, -0.1101142094, 0.0643780008, -0.3313516080, -0.0000324163, -0.0866694152, -0.2432895452, -0.0318899713, -0.0865260959, 0.0868888572, 0.0349683464, 0.3505395651, -0.0979707837, -0.0860239118, 0.0707573816, 0.2215095311, -0.0325236097, 0.0935018882, 0.0115607278, -0.0069650216, -0.1018029526, -0.2277819365, 0.1480529457, -0.0724975988, 0.0341647714, 0.3387822211, -0.0634312034, 0.0776032209, -0.2073759586},
            {-0.1220280603, 0.0157199409, 0.0600569956, -0.1561115831, -0.3775870502, 0.0375599861, 0.1889251769, 0.0342262760, -0.2973164618, -0.2204662710, -0.1798579842, 0.0443120860, -0.0067166975, -0.1172870547, 0.1888785660, -0.1238293722, 0.2682456970, 0.0451526456, -0.0390087254, 0.0441067480, 0.0712400377, 0.0226446167, 0.0799404308, 0.0147116547, -0.0873291492, 0.2023675889, 0.2057265639, 0.0009229366, 0.0038348918, 0.0237816684, -0.0268267673, -0.0932326540},
            {-0.0244291797, -0.2699099779, -0.0817646384, -0.1331075430, -0.2215778977, -0.2008652389, -0.0107366778, 0.2638794780, 0.0825692192, -0.2348776013, -0.3916231692, 0.2709560692, -0.3395663500, 0.0990512669, -0.1685156524, 0.1622615457, 0.0573028810, 0.0211576410, -0.1820150763, -0.0986716375, 0.1506246179, -0.2130991220, 0.0768803284, 0.1941332966, 0.2199306339, -0.5164727569, 0.1502451003, 0.2607111037, -0.1077466980, 0.0346583463, 0.0232200809, -0.1357158720},
            {0.3954347968, -0.2107014656, -0.0070882640, 0.0939090326, 0.1452024579, 0.0743668824, -0.0844765976, 0.1185312122, 0.2714995146, 0.0508497581, 0.1533131301, -0.2532216012, -0.0956610218, 0.3550725281, -0.1869832724, 0.1006541848, 0.0681534111, 0.1561184973, -0.1232327223, -0.1253501773, 0.0224199146, -0.4136906862, 0.0517796911, 0.2389327586, -0.0536320768, 0.1691824943, 0.2904197574, 0.1566195339, -0.0561507829, 0.2642449737, -0.0853319094, -0.2190112025},
            {0.1584281474, 0.2265440226, -0.2129032314, -0.1404412091, -0.0678042024, -0.1050661504, 0.2414822876, -0.1115678176, -0.2611582875, -0.3646948636, -0.0289271679, 0.0861199647, -0.1415182203, -0.1641855985, 0.1928491592, -0.1008898765, -0.1198196635, -0.1808724701, 0.0155053958, 0.4849327803, -0.0330148675, -0.1185789257, -0.1577991098, -0.2404157668, 0.0393581204, 0.1301659942, -0.0626169443, -0.2778697610, 0.0804645121, -0.4335332811, 0.0445367992, 0.0851983353},
            {-0.1215082183, -0.2952720225, -0.0262689032, -0.3401226997, -0.1195187792, 0.0711267218, -0.1370280981, -0.3063392639, 0.0850510299, -0.2617120147, 0.2953212261, 0.1427672803, -0.0660262555, 0.1272562295, -0.0744046047, -0.0582448132, -0.0631773695, 0.3037728667, -0.4690226316, 0.1925358027, -0.2041742206, 0.0632702336, 0.1953237951, -0.2584970593, -0.1814716756, -0.0520899072, 0.0935113952, -0.0590333119, 0.2450800389, 0.1347376406, 0.0810820013, 0.1314984411},
            {-0.3975495696, 0.2969770133, -0.1588697582, -0.0752957538, -0.1084787399, -0.3682765365, 0.1699282229, 0.6005006433, -0.0614913739, -0.4915858507, -0.2013539672, -0.0948382542, -0.1025421619, 0.1706965268, -0.0785653070, -0.1671844125, -0.0043988777, -0.0161677059, -0.0386013389, -0.0334996060, -0.1031919345, -0.1399026364, -0.2796804011, -0.0284558125, 0.2531371415, 0.1167469472, -0.3575310111, -0.0371171869, -0.1928316355, -0.0202340726, 0.6277993321, 0.0685696453},
            {0.0220753737, 0.0396025702, 0.0312012732, 0.2191401869, -0.0702586323, -0.0908406153, 0.1541679353, 0.0051487852, -0.1353768259, 0.2201849222, 0.2860954404, -0.0799599662, -0.1779498160, 0.0160072818, 0.0936320797, 0.0763028115, 0.3605003357, 0.0692485198, 0.0456957705, -0.0506876633, -0.2604863644, 0.1446724981, -0.1889720559, -0.0060931914, 0.1899148971, -0.1902870238, -0.0054004788, -0.2956585288, -0.0255022869, -0.1612534225, 0.0355747305, 0.0354334265},
            {-0.2563298345, 0.0529675372, -0.0966124535, 0.0579962656, -0.2263275385, -0.2088216245, -0.1501592100, 0.0312995017, 0.0425127223, -0.0148613025, -0.0024119604, -0.1812204570, -0.0837032944, -0.1580953151, -0.1849133670, 0.0266613942, -0.2709953487, -0.3887645602, 0.0691749230, -0.0379220545, 0.1488521695, -0.1118404046, 0.0465765335, 0.0792483836, -0.0296269432, 0.1133700460, -0.3915376067, -0.2291676402, 0.1191104278, -0.1161896214, 0.0504987091, 0.3337864578},
            {-0.3753332496, 0.0057192724, -0.2685143650, 0.0474553965, -0.2530347705, -0.0052906671, 0.2064380050, 0.1304439157, -0.0069682430, 0.0399355479, -0.5058348179, 0.0086283693, 0.1880777776, -0.1807426065, -0.1016624495, 0.0176130589, -0.0785263553, -0.2640328109, 0.1519169360, -0.3007875085, -0.0806635097, -0.1622787863, -0.2927898765, 0.1168762967, 0.0315104835, 0.0622502491, -0.4132086337, 0.1041506901, -0.0016594836, 0.2154188454, -0.0856493562, 0.3039290309},
            {-0.0916855410, -0.0656932294, -0.0699638128, -0.0736515149, -0.1019685194, -0.2160382569, 0.1143715680, -0.1714240909, -0.0074644266, 0.3507580459, 0.0396431424, -0.1442774981, 0.0850796327, -0.3120110333, -0.1072218865, 0.2716310620, -0.0096640550, -0.0463892892, -0.0600765608, 0.2624562979, 0.0405690297, 0.2972499728, 0.1475121081, 0.1501955539, -0.3982647061, -0.0222891811, 0.0171886403, -0.2047986835, -0.0390708633, -0.0454680584, 0.2037189603, -0.3602536917},
            {-0.1449216306, 0.0468092561, 0.0259946752, 0.1320450306, -0.2635521591, 0.0857692137, -0.0482974276, -0.1326449960, -0.1464634836, 0.1388682425, 0.0465098284, 0.0144327460, -0.0667025894, 0.0659879148, 0.1375474334, -0.1136320680, -0.2442360073, 0.0230721012, 0.0682209730, -0.1394362301, -0.1082516536, -0.0206943452, -0.1984271854, -0.2646483481, -0.4070881307, -0.0484796502, 0.0611106344, -0.1575218886, -0.0313724801, -0.1403425634, -0.1074002087, 0.1832209378},
            {-0.1200810075, 0.0927863866, 0.1152177751, 0.0015257684, -0.1034928337, -0.0337306485, 0.2262314409, -0.0086870324, -0.0773919523, -0.0246394165, -0.0883014202, 0.0699363351, -0.0770130828, -0.2166468054, -0.0521470159, 0.1550512761, -0.0134744802, -0.1617115736, 0.2598346472, -0.2510790527, 0.0437678024, 0.0640467703, -0.0817684531, -0.1135851964, -0.0061577549, 0.0391157269, -0.3914581239, 0.0128367860, 0.3297979534, 0.1502947509, -0.2198848724, 0.5646649599},
            {-0.1627519131, -0.1220978573, -0.0685053244, -0.0177538861, -0.3010854423, 0.3232919872, 0.0116400719, 0.2055281550, -0.0138324946, 0.0115048001, 0.0797646195, -0.0539184101, 0.0740431547, -0.0509640239, -0.0698936060, -0.2637764812, 0.1398971975, 0.1331520230, 0.0273044799, -0.0453762189, 0.3095875680, -0.1460393220, -0.1605253816, 0.1071943864, 0.1109658927, 0.0211718064, 0.0363550223, -0.0865201578, 0.2640435398, 0.1629094929, 0.1597479284, -0.1587722898},
            {-0.0801543370, 0.1773583442, 0.0487940870, 0.2228953540, 0.0923160613, 0.0421729609, 0.3500346243, -0.1214459091, -0.2110458165, -0.3932043314, -0.0247743484, -0.0247575454, -0.0522258542, -0.0814553276, 0.1074626595, -0.2656904757, -0.1965581328, 0.2882280648, -0.0424220152, -0.2189964056, 0.0404680930, -0.0364946984, 0.2747868896, 0.2434169203, 0.2735482156, -0.0190550890, 0.1841419041, 0.0229337215, 0.0954317153, -0.0897343680, 0.1073667705, -0.1645757854},
            {0.4608214200, 0.3808238804, 0.2191839963, 0.3193526566, -0.1834150851, 0.1890831292, -0.1277707517, 0.2766538858, -0.0577105470, 0.3661899865, 0.4622047246, -0.4072931707, 0.2367142737, -0.0550623387, 0.1490259469, -0.1535420567, -0.0788073018, 0.2557292581, 0.0337895565, -0.0400006697, -0.1035402417, -0.1076033935, 0.0139442421, -0.1248161346, -0.0220118519, 0.1319330931, -0.2148320824, -0.4460744858, 0.0700886399, 0.2301010638, 0.1085093841, -0.2316154540},
            {0.0517985374, 0.0792701244, -0.2687724829, 0.1471834332, -0.4867004454, 0.1455659419, 0.1500625014, 0.0494590066, 0.1617380083, -0.2294875830, -0.0873501226, -0.0038985647, 0.1521986723, 0.1889209598, -0.1327852905, -0.1650117189, 0.0483966619, 0.2729279101, 0.0010842916, 0.1338863522, 0.1895377487, -0.0415441953, 0.0575251505, 0.1244160756, -0.0653410777, -0.0988303572, 0.0436147526, 0.1998741627, -0.0162963737, -0.0835118294, 0.0500857346, 0.1237327456},
            {-0.0816978291, 0.0786441639, 0.1998855025, -0.2991039753, 0.1747606844, 0.0289499778, 0.2767292857, -0.1631402373, 0.0370558165, 0.0425550565, 0.1907791495, -0.1007340774, 0.0432796292, -0.0077307709, 0.2047938555, -0.0285990145, -0.0029313308, -0.3094339073, 0.1838808656, 0.2296024710, 0.0151532106, -0.0046123769, 0.0457537472, 0.1166777015, 0.0829340070, -0.2758936882, 0.1161153913, -0.0494742841, -0.0258061290, 0.2449234575, 0.4168259501, 0.0294308905},
            {-0.1124453694, 0.0542226695, -0.0247259606, 0.0489183255, 0.0290579200, -0.1079662815, 0.0407158583, -0.1168591976, -0.1806960255, -0.2824325562, 0.3801519573, -0.0304247644, -0.0776073113, 0.2935551405, -0.0429163836, 0.1193235219, 0.0898682997, 0.0289848614, -0.3710847497, -0.0046149925, 0.0121710123, -0.0339429490, -0.0593078956, 0.1904387921, -0.2377713770, 0.0042157527, 0.0228628963, 0.0911156535, -0.0758611709, -0.2342634946, -0.0929885134, -0.1071639508},
            {-0.2430699468, 0.0048324228, -0.0662117079, -0.2609156370, 0.0414751135, 0.0995994434, -0.0783426538, 0.0420534089, 0.0043864762, 0.0322152749, -0.0620462261, 0.0127218254, -0.0903112665, -0.1381881535, -0.1979740858, -0.2712272704, 0.0590724424, 0.3428968191, -0.0683404058, -0.2847393155, 0.0954249799, 0.2114879340, 0.0582276918, -0.0114444541, -0.0532826670, 0.0720503256, -0.1350487471, -0.0243719034, 0.0572498217, -0.2528410852, -0.3698757589, -0.0592604540},
            {0.1749430448, 0.1839131415, 0.1269282252, -0.2254141122, -0.0311163813, -0.0837355852, -0.2229761332, -0.0357907042, -0.0994528085, -0.3527944088, 0.1682544351, -0.1256708354, 0.0545731224, 0.0479692370, 0.2563796937, -0.2249818742, -0.3510310948, 0.2307429612, 0.2872909307, -0.1585508436, 0.0722728446, 0.0297982693, 0.2524778843, -0.0421881117, -0.0869846568, -0.0347227491, -0.0084115192, 0.0191627238, 0.0101345330, -0.2381275445, 0.0469509065, 0.1113149896},
            {0.0811593756, 0.0815343931, -0.0354753025, 0.0526721366, -0.5067098737, -0.0429350138, -0.0534087755, 0.1585364938, 0.3873016238, 0.2555862665, 0.0372766890, 0.1521944553, -0.1243026331, -0.1698587239, -0.0706988275, -0.0895707086, -0.0656742156, -0.3578281701, -0.0331520624, -0.0341964960, 0.1798612326, -0.3456369340, 0.0766010657, 0.0896665454, 0.0275277402, 0.0704001188, -0.0976018012, 0.0254138764, 0.2228323817, -0.0064371969, -0.0568371937, 0.4325678945},
            {0.1994349658, 0.0839745328, 0.2714900076, -0.3102137148, -0.0975285172, 0.0430021919, 0.2327880412, 0.1693582833, 0.0697639138, -0.3463522494, 0.2694383860, 0.0461346656, 0.1219086349, -0.0679673031, -0.0950748995, -0.0265953038, 0.0893419385, -0.0834372863, -0.1792225540, -0.1362666935, 0.1533212066, 0.2666041255, -0.3396519721, 0.0878299624, 0.0865141675, 0.3119543195, 0.0780971646, -0.2586995661, -0.1085508242, 0.3379246593, 0.3040516376, -0.0378929712},
            {0.0715218857, -0.2827699184, -0.1033544093, -0.2786770463, -0.1958835125, 0.0903275311, -0.5226350427, -0.1690604389, -0.1705881953, 0.1170476973, 0.1378385872, 0.1151101887, 0.0400659293, 0.0232439116, 0.0487489104, -0.2352662534, -0.0817537084, 0.1504483968, 0.0434171148, -0.2241853178, -0.0570181757, -0.1626819968, -0.2569048405, -0.0738418549, -0.1046859547, -0.0396431088, 0.0056750807, -0.0442554280, -0.0124572227, 0.1752757877, -0.2526871264, 0.0218313765},
            {-0.5110133290, -0.0893919468, -0.2545950413, -0.0746695995, -0.5887605548, 0.0793090686, 0.1293124408, -0.2954545915, -0.1150249392, 0.5650143623, -0.1317882091, -0.1190186068, 0.0309963264, 0.2452056110, -0.4456812143, 0.1948675215, -0.2511790395, -0.2437451184, -0.0831872225, 0.1012455896, -0.0710697696, -0.1090038642, 0.1525199711, -0.2293557674, -0.1402874291, -0.1801781058, 0.0625584871, 0.2439574748, 0.1171798557, 0.3398364484, -0.1993909925, -0.1757717431},
            {0.2351272255, 0.0995615646, 0.1989347190, 0.0988771692, -0.3656919599, -0.0784870759, 0.2574811876, -0.2925462723, 0.0286666714, -0.4874199629, 0.2388765216, -0.0820145831, 0.2197582424, -0.1339704245, 0.1403545886, 0.0579855256, 0.4721588492, 0.0075790901, 0.0016029507, 0.0177840069, -0.1630942672, 0.1043073311, 0.0543620475, -0.1290147752, -0.1224759668, 0.1134422272, 0.2303517610, -0.0427926220, 0.3250069320, -0.3211162686, 0.0660291687, -0.1852486879},
            {-0.3149718046, -0.0291633494, -0.1090401262, -0.0992391631, 0.2537705302, 0.2743766904, -0.0839992464, 0.0197950602, -0.0702824667, 0.1928263754, 0.1020937562, -0.0127427010, 0.3336614072, 0.1154219806, -0.1900460571, -0.1446262598, -0.0314182527, 0.0259581748, 0.0223927684, 0.0972845033, -0.2019384503, 0.1236468330, -0.1469815820, -0.1013545543, -0.1388487816, 0.0486681201, -0.2179847807, 0.1688311994, -0.1288048774, 0.0569093712, 0.2591066658, -0.4283981025},
            {0.0260248128, -0.0016115885, 0.0237396155, -0.1733177602, -0.0824068263, 0.0087211374, -0.4454117715, 0.0622926727, 0.0197027251, 0.0671324879, -0.2687175572, 0.1799349338, -0.3703051805, -0.1529142559, -0.1111670434, 0.1017870679, -0.1525214612, -0.1294912100, 0.0086255195, 0.1261387914, -0.1013962403, -0.3926830292, 0.3427884281, -0.0813272968, 0.0245486312, 0.2730905116, 0.0992191434, 0.4290683866, 0.0201679189, 0.1846125275, -0.0378277227, -0.2545492649},
            {0.0311676487, -0.1095841825, 0.0512017049, 0.0455024131, -0.2413329780, 0.0100378785, 0.1855623275, -0.0606456660, -0.3404999971, 0.0258879215, 0.1223879978, -0.1734755635, 0.0358171687, 0.1073972583, -0.0498730950, -0.0866571143, 0.3233412206, 0.1660922617, 0.1931522489, 0.3070550561, -0.1486439556, 0.0317469910, -0.0276930276, 0.0522129163, 0.0589183681, 0.0817562342, -0.1319354624, 0.3430967927, -0.0729461983, -0.2188421488, 0.0131182885, -0.2510609925},
            {-0.0185059309, -0.0909875482, 0.0158290174, 0.2179588377, 0.0278655048, -0.2191920578, 0.1688659191, 0.1683446467, -0.0559918992, -0.1405937225, -0.1039654389, -0.0832036734, 0.1324280947, 0.0433696881, 0.0263683088, -0.1225319132, 0.3130047619, 0.1764638722, -0.1018213779, -0.1345196068, -0.0190634523, 0.2846919298, 0.0397284776, 0.0858131722, 0.0363366790, -0.0547227636, 0.1269141436, -0.1143944189, -0.1254817247, -0.3838053942, 0.1938219070, -0.1798552871},
            {-0.0935887247, -0.1105600893, 0.0702344254, 0.1271605045, -0.3907431066, -0.0854841545, 0.0279596355, 0.0080304109, 0.4062929451, -0.3316591978, -0.2696755528, 0.4213615358, -0.1294860840, 0.0317520238, 0.0925447568, 0.0231726244, -0.1805794239, -0.1303808391, -0.0559869483, 0.0963874906, 0.1560902148, -0.1628756523, 0.2884949446, 0.2471075654, 0.0363825634, -0.0970135704, 0.1351184994, 0.1912854761, 0.0881779417, 0.0979195833, -0.0400136709, 0.3113514781},
            {-0.0522048026, -0.0439211652, 0.3530523181, -0.3368633986, 0.0568336807, 0.1683830470, 0.0734477937, -0.1626975536, 0.0816647857, -0.0007219634, 0.1941400170, -0.1000408083, -0.0215278231, 0.1221395209, -0.1792286932, -0.1167258471, -0.3057117164, 0.0000288125, 0.0614181943, 0.3192049861, -0.0272365678, -0.1283471882, -0.1614113748, 0.0473411232, 0.1896286756, 0.2121853381, -0.1855619997, 0.1360419393, 0.0473676436, 0.0400036871, -0.1428415626, 0.1897537410},
            {-0.4047222435, -0.0407225676, -0.0259306096, 0.0152689768, -0.1685231179, -0.0739559084, -0.1548001766, 0.2029456943, 0.1908074766, -0.2567238212, 0.0768360272, 0.1168015152, 0.0911737606, -0.2597105503, -0.0457470715, 0.1177446693, -0.1659676731, -0.0873997360, 0.0401945114, -0.0755643845, 0.0644637495, -0.2624294758, -0.0372209325, 0.3126276731, 0.1896371692, 0.1676529050, 0.1201092154, 0.0443384238, 0.2376953363, 0.0825205520, -0.1358255595, 0.3103100657},
            {-0.1768287569, 0.3431347311, 0.2423422188, 0.0567223057, -0.0337013043, 0.0648217127, 0.1098411158, 0.4475295842, 0.0396375023, -0.0029140583, 0.2150123715, 0.1023048982, -0.3475247025, 0.1028256416, -0.1385500729, -0.0252686683, -0.0141741531, -0.1622202396, 0.1638074219, -0.0294428822, -0.0635214224, -0.0528936163, -0.0620310679, -0.0685795918, 0.0958659574, 0.1268009543, 0.0377646722, -0.1241021752, -0.0538780838, -0.0730490163, 0.1550976336, 0.0421713889},
            {0.1707316190, 0.2982854545, -0.0399063416, -0.3675115705, 0.0431398116, 0.2315194905, -0.1902203262, -0.0262246858, 0.1740980148, 0.0119986208, -0.0796359256, -0.0157830436, -0.0237360410, 0.1117376685, -0.0234593656, -0.0704726502, -0.0293854177, 0.0245510321, -0.1079528853, -0.0056568841, 0.1872505099, 0.1983100921, 0.1592954695, 0.2957866192, -0.3985153437, 0.1300079823, 0.1007589549, 0.0155185834, 0.2318925709, -0.0789074227, 0.3709293008, -0.0984974876},
            {-0.0129381111, 0.3270236552, 0.0336503945, 0.1108870134, -0.2148469985, 0.0795415714, -0.0000981877, 0.1255197376, 0.3050543666, 0.3296224177, 0.2060779929, -0.0266980901, 0.0946565941, -0.0456236117, -0.2975953519, 0.2407908887, -0.0060307626, -0.1169545650, 0.0096625974, -0.2648606002, 0.0412566103, -0.2435092479, 0.0397860222, 0.1534887403, -0.1198752001, -0.0170487519, -0.0751879588, 0.0878950655, 0.2269363403, 0.0941801593, -0.2335104048, -0.0622383952},
            {-0.0436049178, 0.1338838637, -0.1884594858, 0.3908929527, -0.1630381197, 0.1479409635, 0.0012467826, 0.0076612011, -0.2799710333, -0.5220896602, 0.0783157796, -0.1550770253, 0.2177796215, -0.0482593589, 0.0706069916, -0.2550380528, 0.0848519951, 0.5762195587, -0.1483306736, -0.1297654808, 0.0738547519, 0.0061201612, 0.0280591249, -0.0434435047, -0.0081996508, -0.1250938475, 0.2220541835, -0.1355095804, 0.1240246072, 0.0314802378, 0.0674450323, -0.2999028862},
            {-0.0994680524, -0.0893269926, 0.1504425853, -0.2266364247, 0.0142713021, 0.0977984220, 0.0162777659, -0.1150739342, -0.0455648080, 0.1919579208, -0.0162959080, 0.0294976477, -0.1195466742, 0.0751396045, -0.0471321307, 0.0233549159, 0.1506791115, 0.0474687628, 0.0299939699, 0.5635668039, 0.2112857997, -0.1678346992, 0.2401529104, -0.2492254972, 0.1660362929, -0.2235094309, 0.1986404955, -0.2562651634, -0.2440515310, -0.0402569026, 0.1672131717, 0.1703002453},
            {0.0251508225, 0.1846646965, 0.1957935691, 0.0223582014, 0.1237451881, -0.0273384452, -0.0384225324, -0.1844126731, -0.0456502028, -0.0859819874, 0.1398271620, 0.1458486468, 0.0568775535, -0.0369506031, 0.1004738808, -0.4365928471, 0.0857173651, -0.1829727292, 0.0555458218, 0.3692975938, -0.1583940536, -0.1245556697, 0.1957548708, -0.3024042845, 0.0266776681, -0.1011566520, -0.2041407973, -0.0407606885, 0.6313027740, -0.1448119283, 0.2072609067, 0.1363363564},
            {0.0960455164, 0.1802893877, 0.0573203862, 0.2031751573, -0.0154046742, -0.0734084398, 0.0249559730, 0.0367584750, -0.5494852066, -0.2138424963, -0.1492014974, -0.4116208851, -0.2209264487, -0.1173621491, -0.0830892324, -0.2385496348, 0.0338991396, 0.4037930667, -0.1302695572, 0.1630767733, -0.0941506997, 0.1320732534, 0.0379534811, 0.0305836610, -0.4183506072, 0.0191766676, 0.3065519035, 0.1041018665, 0.0713281184, -0.0749474987, -0.1455873698, -0.2752505243},
            {-0.0437042862, -0.0594868287, 0.0502018668, 0.0041941600, -0.0681810901, -0.0916417688, -0.0444843844, 0.1466318220, -0.0572012737, -0.3643818796, -0.0294607095, 0.0299695805, 0.0284885187, 0.0699330047, -0.0936258435, 0.1734592319, -0.1951719820, -0.3077511489, -0.0049340529, 0.0284915697, 0.2478041947, 0.1393533647, 0.1151028648, 0.0630967692, 0.1321678162, -0.1340343952, -0.0933397785, 0.2990733087, -0.1266873628, -0.0037832907, 0.1291448325, -0.1371507496},
            {0.0550039969, -0.1228186786, 0.0552888662, 0.1412919164, -0.2394864559, 0.4465534389, 0.2499566674, 0.0914922729, -0.0092969052, 0.0667199343, 0.2831599414, 0.0772022381, -0.0345894136, 0.2427204400, 0.2292989194, 0.1111037657, 0.1864437461, 0.2844200432, -0.1142229885, 0.0980211571, -0.1789026707, 0.0946660563, -0.0632872730, -0.0728003383, -0.1652033478, 0.1120082811, -0.0401190370, -0.4425261319, -0.0338526033, -0.1259953827, 0.2306084037, 0.1199333295},
            {0.0582408682, 0.1027438641, 0.2875533104, -0.0150787504, -0.3212227523, -0.0034987691, -0.2345857620, -0.1287955344, 0.0209415536, -0.1691939086, 0.0427786261, -0.0137318252, -0.0290394332, 0.1009031013, 0.0453017242, -0.2695250809, 0.0750636309, 0.0476507656, -0.1246594414, 0.1512925774, 0.2711187899, 0.1843713373, 0.0449855700, -0.1305117309, 0.0533509515, -0.0315852985, -0.0254286639, 0.0143654617, 0.4906759858, 0.1251715869, -0.1367350668, -0.0377291515},
            {0.2348158658, -0.1244151369, 0.0649698302, 0.0888758302, -0.0983743295, 0.3630566597, 0.1509688050, 0.3162138760, -0.0068408884, -0.1739988625, -0.0241168588, 0.0458377823, -0.1111766398, -0.1529375464, -0.0157698821, -0.2453161180, -0.0565767512, -0.1472322494, -0.2414120436, -0.1913364232, 0.1286119223, -0.1610516161, -0.7056472301, -0.0681418404, 0.0171697699, -0.2838582397, -0.0562005192, 0.2644957006, -0.1779030263, 0.4601117969, 0.0360986628, 0.1910293698},
            {-0.1014636084, -0.2038090080, 0.2224514037, 0.0599789396, -0.2353967428, 0.0163709782, 0.0760058835, 0.2143742591, 0.1476595402, 0.1175090075, -0.3562681079, 0.2410551459, -0.1795655489, -0.0802384764, -0.1946182996, -0.0131303202, 0.2063624710, 0.1230314076, -0.0814660192, 0.0533208176, -0.0384320058, 0.0134161832, 0.0691171959, 0.0172662660, -0.0730665252, -0.0880992338, -0.0279576760, 0.1290412247, -0.1288942397, 0.1467191428, 0.0661808401, -0.2459349781},
            {-0.0825176314, -0.2320759445, 0.0864656121, -0.0366503783, 0.0539256968, 0.0341200829, 0.1714958251, 0.0040803230, -0.0428004786, 0.0599591769, 0.0903728455, 0.0851984173, -0.2082667053, 0.2763666511, -0.1265466958, -0.2529782653, -0.1425683349, 0.3064403534, 0.1336232126, 0.0028266255, -0.0496411957, -0.0990418121, -0.1657257676, 0.0780580267, 0.1605123729, 0.1000857428, 0.0341362022, 0.2120415419, 0.0467882454, -0.1030755863, -0.1045081019, -0.0444983430},
            {-0.2631704807, 0.2866853178, -0.3306092620, 0.0262680296, -0.5404969454, 0.0439288840, -0.2324869037, -0.0723881423, -0.1515362561, -0.2721464634, -0.3060579002, -0.3517393768, -0.3064586222, 0.0222288426, -0.3888720572, -0.0337387063, 0.3591374457, 0.5290275216, 0.0511505976, -0.0595320612, -0.0819551498, 0.1348582804, 0.0540360659, 0.1375621408, 0.0405534320, -0.0502383448, 0.2140401900, 0.2195978612, 0.1656385809, 0.2901376188, 0.0669133663, -0.7545459867},
            {-0.1966766417, -0.2312864512, 0.0974265262, -0.0574276522, -0.1385615319, 0.0253231581, -0.1852591932, -0.0594079643, 0.0225860849, -0.0823775381, -0.0297813602, -0.0902935043, -0.1390870512, -0.0047385306, 0.0493068211, 0.1310391128, 0.1165200546, -0.0789640471, -0.3729438186, 0.0841280669, 0.1472773254, 0.1441405714, -0.2947528362, 0.1371760368, 0.3099277020, 0.1200147867, 0.2797535956, 0.0666700378, -0.1827804297, -0.0287232213, -0.0231505353, -0.0916890427},
            {-0.0229583085, 0.0085623041, 0.0582428575, 0.1322818249, 0.0608953610, 0.0622101463, 0.1371319145, -0.0332126915, -0.0416348390, 0.0285938065, 0.1147767231, -0.1486283541, -0.1941292137, -0.0758681148, -0.0654525608, 0.1124117076, -0.3225242794, 0.0745386630, 0.3581965268, -0.0703666434, 0.1296760589, -0.1650974602, -0.0365940444, -0.2515127659, -0.0456504561, -0.0892835408, -0.0487208329, 0.0043696845, -0.0852338001, 0.0533483550, 0.0732958466, -0.3130083978},
            {0.1604534090, 0.2713519335, 0.1180936396, -0.0693965256, -0.0634942055, 0.0371948592, -0.1128573790, 0.1304364204, -0.0099262698, -0.2218795866, 0.1845495105, 0.3530010879, -0.2397395074, -0.1025171876, 0.0252478365, 0.0016772815, -0.2753337622, 0.0499831364, 0.0533511117, 0.1814986169, -0.0947988108, 0.0468773805, -0.0180237703, 0.0797502548, 0.0847519413, 0.0538379438, 0.1256174147, 0.1595244110, -0.1577512175, 0.1042505950, -0.3164879382, 0.3678827584},
            {-0.2151493430, -0.0593063422, 0.1525052041, 0.0312310569, -0.3286749721, -0.0915411413, -0.1965829134, 0.1004199013, 0.2801289260, 0.0450132117, -0.1594356447, 0.1608339846, 0.2143801451, 0.1494956762, -0.0920710042, 0.0004850206, -0.0958422944, 0.0749140084, -0.2312612385, -0.1624302864, -0.0642394647, -0.0968490914, 0.0548327193, -0.3080870807, 0.1639518887, 0.4297801852, -0.2031243145, -0.0589086190, -0.0728141665, 0.0210965220, -0.0244555976, -0.0836710781},
            {-0.2279428840, 0.2927260697, -0.1227127463, -0.0416687094, -0.1865315139, -0.0650232509, -0.2775626183, 0.1540589780, -0.0460984893, 0.0174413659, -0.4006403387, 0.1451114416, -0.6114525795, -0.0528508052, -0.0407378338, -0.0365427136, -0.1581461728, -0.0366800986, -0.1004751250, -0.0720103607, -0.0848934650, -0.1418149322, 0.1293030828, -0.0739783198, 0.0053700907, -0.0833861902, -0.0071236864, 0.3756370246, -0.0931166261, 0.0718542561, -0.2141408771, -0.4569418728},
            {0.0626715124, 0.2188057005, 0.6313235164, 0.2350911349, -0.0465316512, 0.1817280799, -0.1463771909, 0.3935114741, -0.0002309933, -0.2257649153, -0.0967106074, -0.0251151733, 0.1740724146, -0.1752405316, -0.1782381535, 0.1010350063, -0.1003078446, 0.0750970095, 0.1788181961, -0.5077012777, -0.0790646374, -0.0019446810, 0.0574522503, -0.3121719956, -0.0532252416, -0.1211446673, -0.2114756554, 0.2728243768, -0.1363748461, -0.1463182271, -0.2323531061, 0.1273978353},
            {0.1532301903, 0.4437729120, -0.1875602305, 0.1981251687, 0.3312592506, -0.0333549194, 0.3631077111, 0.1848791093, 0.0257618222, -0.2845336199, -0.0576025434, 0.2549891472, -0.2283511460, -0.0624490231, 0.1635091603, -0.1432854533, 0.1231196821, -0.1963388026, 0.1573512107, 0.0265551452, 0.1496593207, -0.0788407177, -0.1550884843, -0.3694464564, -0.1500461698, -0.1750781536, 0.0763863102, 0.2423287332, 0.0089115603, 0.0422855094, 0.0780461133, -0.0920587927},
            {0.0044755754, -0.1098911315, 0.4528610110, -0.5162817240, -0.0127364146, 0.5271306038, -0.2559318841, 0.1396680772, -0.1494848728, 0.0176084731, 0.4241253138, 0.0345875584, 0.2697336376, -0.1128977239, -0.0154580688, -0.0878465101, 0.2821874619, -0.2971087098, 0.1501566917, -0.1844777167, -0.2034524232, -0.4502662122, 0.3977249563, -0.2883951962, 0.2972242534, -0.1440228820, -0.0539119616, -0.0732433125, -0.0816699862, -0.1791679561, -0.0401579142, 0.4237993062},
            {-0.3109291494, 0.0217825584, 0.0317394882, 0.0170176718, 0.0632952005, -0.0812730715, -0.3380156755, -0.1718189120, 0.2372905910, 0.3501720130, -0.0122244246, -0.2230112553, -0.0799118206, -0.0297241993, -0.0274338424, -0.0681838319, -0.7234762907, -0.3312503397, -0.3362779319, -0.3426643312, 0.0122276107, -0.1497565359, -0.2112781256, -0.1281498373, 0.1189027354, -0.0035755851, -0.1974003166, 0.3355332911, 0.0910661668, 0.0038100851, 0.1169883385, 0.1973629296},
            {0.0551646017, 0.0160938967, -0.0279732961, -0.0644683242, 0.1781149358, -0.2064739168, 0.1538913250, 0.1152995229, -0.1828745008, -0.1371554285, -0.1941508353, -0.0020692667, -0.0425227657, -0.4048648775, -0.0101933340, -0.1371894777, -0.1754609197, -0.0087363068, 0.0515563488, -0.2081353664, -0.1621303856, -0.0728563294, -0.1340188831, -0.0201028604, 0.0716110468, 0.1989009231, -0.0102256592, -0.0265928470, 0.3384397626, -0.4747043848, -0.0895051062, 0.1376991421},
            {-0.1623651087, -0.2930593789, -0.0579834543, -0.1678508669, 0.1097632200, 0.0736571327, 0.0095453132, 0.2853712142, 0.2718772292, 0.3202282786, -0.1083885580, 0.3414721489, 0.1159023568, -0.3192794621, -0.3094199896, -0.0223820452, -0.2175344229, -0.2968549728, 0.1085273623, -0.0075886315, -0.1348622590, -0.1079736724, 0.1117553189, -0.1285999268, -0.0022151575, -0.0981704146, -0.1165367216, 0.1861376166, -0.0713215247, 0.0883055255, 0.0438917764, -0.0227721222},
            {0.2094008029, 0.0387311466, -0.3682959676, 0.1382174790, -0.3128949404, -0.2274275273, 0.1244351491, -0.4358147681, -0.3740929365, -0.5011236072, 0.1456735730, 0.1003906727, 0.0891789198, -0.1683533490, 0.1284240782, -0.1453818381, 0.0875184983, -0.0286423620, 0.4081775844, -0.2572581172, -0.1437158138, -0.0334876850, -0.0218587909, 0.0976628140, 0.0079351123, -0.0603706539, -0.0777339563, -0.1329023838, 0.4896157086, -0.1587357670, 0.0831309631, -0.0522377118},
            {-0.1063961238, 0.0742040947, -0.2696197331, 0.0681063458, 0.0776723698, -0.1961186826, -0.0950183719, 0.0049733333, 0.1127738878, -0.0701180845, -0.2403346747, 0.0379684828, -0.1403087527, 0.1943824142, 0.1894229352, -0.1308928132, 0.1262547672, 0.0400901102, -0.0589395948, -0.1695237458, -0.1679131389, 0.1537517458, 0.0692554787, 0.3929590285, -0.0901374072, -0.1512540877, 0.0463639945, -0.1371902376, -0.0693869740, -0.0254500601, 0.3994941711, -0.0629164875},
            {-0.0205033440, 0.1447195113, 0.0244668834, 0.0231882110, -0.0741356462, 0.0733923241, 0.1352580041, 0.3909565508, 0.0281332005, 0.0690295771, -0.0511982962, -0.0488396697, -0.0147545813, -0.0410631336, 0.0472421274, -0.1588139981, -0.3584838510, 0.0090353321, -0.0537327230, 0.1306889206, -0.2736724317, 0.0950220078, -0.0381424874, 0.2378564924, -0.1745386124, 0.1788367182, -0.0728547499, -0.2680311203, 0.0558746643, 0.0063721626, 0.0508070737, 0.1899142712},
            {-0.0919393972, 0.2529135346, -0.0431780629, -0.1905990839, -0.1464990824, -0.0913962871, -0.4058863521, 0.1533854753, -0.0580419824, 0.4131140709, -0.0575024113, -0.0573877506, -0.0055676880, -0.0560147166, -0.0051165163, -0.1348546743, 0.0924016684, 0.0338773653, -0.3344743252, -0.1069633290, 0.1230362728, 0.2354127318, -0.0295406114, -0.1924777329, -0.5533662438, 0.0659940466, -0.0538855903, -0.2954940498, 0.1444480568, 0.2156532556, 0.0211572349, 0.0509836338},
            {0.1309500337, 0.1677300334, -0.1300063431, -0.0292613357, -0.4028065801, 0.0120905517, 0.1154558063, -0.1233769059, -0.3359575570, -0.3922334015, -0.0416632332, 0.2222608328, -0.1653049737, -0.1437729448, 0.0304557048, -0.0256135352, -0.0106218522, -0.0779434517, 0.1447516531, -0.3235988021, 0.0558432527, -0.3113923371, 0.0590503775, 0.1530422419, -0.3043894172, 0.1102148890, -0.1049128398, 0.2217081636, 0.2510977685, -0.0547518618, 0.1016405076, -0.0971882045},
            {-0.0160168391, -0.1366038173, 0.0565019622, -0.2191817611, -0.2645385861, 0.0085783871, -0.0946672410, -0.0982742608, 0.1115637347, 0.1302136779, 0.2359014004, 0.0949834511, -0.0869651139, 0.1473007649, 0.0797590017, -0.2469995171, 0.1093310937, -0.0795999244, -0.0842190161, 0.0187321976, -0.0594878905, -0.1563087702, 0.2516194582, 0.0646209493, 0.0585432462, -0.1470765024, 0.0405875854, 0.0016274183, 0.1167444438, -0.0102716330, -0.1535339355, 0.0232547596},
        },
        {
            {0.1846072078, -0.1004585028, 0.0547788888, 0.1973922104, 0.2827725708, -0.1362121105, -0.2432363629, -0.0699070022, -0.1829850525, -0.0651096404, -0.1639290601, 0.1605839431, -0.0601256788, 0.0599355400, 0.0960957929, 0.0523363352, 0.1241858527, 0.1034105420, 0.0804492533, -0.3131492734, 0.0765848458, 0.0812068135, 0.0162614454, 0.2731890976, -0.2840418220, 0.0166144297, -0.0577824004, -0.0537198037, -0.6210806370, -0.0360519178, -0.2055031955, -0.1118585169},
            {-0.3700777888, 0.0090844957, 0.2341530025, -0.0104927020, 0.0966270790, 0.0381115973, -0.0805998743, -0.0269832332, -0.2001881897, -0.1108475104, -0.0566056073, -0.3307926059, -0.3249524832, 0.6023207307, -0.0877335295, 0.0041911742, -0.2436270714, -0.2248514593, -0.1249885559, 0.4381491840, 0.0010473855, 0.0789599493, 0.0324333459, -0.1014449969, 0.0082624936, -0.3392509520, 0.0091265850, 0.1781070083, -0.1383730620, 0.0321294107, 0.0256795511, 0.1252035052},
            {-0.2227476686, 0.0167805254, -0.1977282315, 0.3043554425, -0.2337230742, -0.1659039259, 0.0565912835, -0.0883653685, -0.1268388629, -0.2723440230, -0.0680849999, -0.4282785654, -0.0428818762, 0.0862684175, 0.0069535058, 0.0623751692, 0.1905900091, 0.0008344474, -0.0493335351, -0.0221706610, 0.0645904541, -0.0385060050, 0.1741660535, -0.0554708540, -0.0033991435, -0.5980104208, -0.1717402935, 0.3043794930, 0.0333272740, 0.0335887261, -0.0710162893, -0.2117747366},
            {-0.0428805128, 0.0900077298, -0.0272540115, 0.1247921661, 0.0925938934, 0.0087970952, -0.1054373682, -0.0335821323, -0.0253752060, -0.1171953082, 0.0684574023, -0.4670036137, -0.2320892960, -0.1145048887, -0.2045814246, 0.2742604911, -0.1576484740, -0.0333066024, -0.1336866021, 0.3526637554, -0.0220582914, 0.1556907296, 0.1132289097, 0.2476984262, -0.0804928020, -0.0311507005, 0.1724544168, 0.2533987164, 0.1067709774, 0.3591272831, -0.0448992290, -0.2758497894},
            {0.3482924104, 0.0203216933, 0.1245392933, 0.0210944768, -0.1891146749, -0.2491241097, -0.0318015926, -0.0579728857, 0.0624704845, 0.3492497504, 0.1805114150, 0.0376432873, -0.0234314818, 0.0836131945, 0.0100632170, 0.0722727925, 0.0200406294, -0.2791909575, -0.1066152826, -0.0967545360, 0.3826541901, -0.0714790821, -0.0835487470, -0.0234240964, 0.2095923573, 0.1279736310, 0.0824083760, -0.1534287930, -0.0847113132, -0.1029816121, -0.2485484034, 0.0806554481},
            {0.1247491837, -0.1455194503, -0.2330083251, -0.1293170005, 0.0198913794, -0.0715123489, 0.0621001311, -0.0005879613, 0.1495790780, -0.0321343951, 0.5488427877, 0.0411162637, 0.0199702233, -0.1233444065, 0.1158141792, 0.1400465816, -0.0150911529, -0.0589251928, 0.1222399324, -0.0447903425, 0.1056370363, 0.0880068764, 0.0127505343, 0.0111832358, -0.2179064900, 0.1509867758, 0.1348308325, -0.0208760165, -0.1931893528, -0.0853428915, -0.3062591851, 0.1345701069},
            {-0.2610269189, 0.4879851043, -0.2365930080, 0.1956354380, -0.0370205194, 0.0588852726, -0.2831111550, -0.0924096406, -0.1294802874, -0.1838578582, 0.0744952857, -0.1976245493, -0.0594941452, 0.0905189365, -0.0923646688, -0.2136821002, -0.0590343289, 0.2792852521, -0.0329852216, -0.1573153585, 0.3802182078, -0.0292790215, -0.2778014839, -0.2153858542, 0.4939918220, 0.0400816351, -0.2382591218, 0.1859838516, 0.1807778180, -0.0034090900, 0.2600146532, -0.0609179325},
            {-0.0887816995, -0.0603431426, 0.0574946404, -0.0327446535, -0.2314569354, -0.1538805813, -0.0430982970, 0.2391437739, 0.0075071543, 0.1973005235, -0.1228486523, -0.1054841578, 0.1052081138, 0.4736942053, -0.0815162212, 0.0259265751, 0.2198833674, 0.4887086153, -0.0958537683, -0.1508005559, -0.1028930992, -0.0984897390, -0.3266603053, -0.0247486383, -0.0245392285, -0.3227531314, -0.1296798736, -0.2677509785, 0.0995891765, -0.1779745072, 0.0626677126, -0.1179342717},
            {-0.1379696280, 0.0084737157, -0.1026031673, -0.1248048395, -0.1603740305, -0.1677912772, -0.0354571193, -0.2393551618, 0.0174630359, 0.3320377469, -0.0039224289, -0.2610650659, 0.3245551586, -0.1072692350, 0.0532269254, -0.0482347012, -0.0823909342, -0.1482429802, -0.0440623201, -0.1299801767, 0.0547228307, 0.1711028814, 0.1674638689, 0.2899408937, 0.0561576597, -0.2469132841, -0.1277349889, -0.1921815723, -0.1355009824, -0.1536725312, 0.0012032061, 0.0350497589},
            {-0.2513824701, -0.2065436840, -0.4555489719, 0.1374336928, -0.1187333614, -0.0539138988, -0.2457881868, -0.1592021734, 0.2385190278, 0.3909671605, -0.0558048189, -0.2786072195, 0.2797417641, 0.1131136492, 0.0009837013, -0.0427031778, 0.3674063981, 0.0175977126, -0.1222772971, -0.1675081551, 0.0035405550, 0.1916441470, -0.1812207550, -0.0310382880, 0.1388244480, -0.0055904258, -0.3283936977, 0.1669127345, 0.0370210744, -0.0682350099, 0.1398449689, 0.0989102200},
            {0.1364188045, -0.1000498682, 0.4253546298, -0.1608348340, 0.0115974825, 0.0760517567, 0.1650811434, 0.3093208969, -0.0976905376, -0.5769033432, -0.2499077022, 0.0203994699, -0.0354441553, -0.2126641273, 0.1280422211, 0.0289232116, 0.0726530254, -0.1981838346, 0.0285878293, -0.0703219473, -0.0018499956, 0.2120533884, -0.2422502637, -0.0484917723, -0.2530791759, -0.2783948481, -0.0651314482, 0.0590956099, -0.1051247120, 0.0250985734, 0.1157294214, -0.0136964275},
            {-0.0974334329, -0.0100223329, 0.0545395128, 0.1513240188, -0.0523918271, 0.0605477281, -0.0676259622, -0.0002683845, -0.0941440761, -0.0234593153, 0.0316640474, -0.0651079044, -0.0705536082, 0.0214659628, 0.1274753511, 0.0060775257, -0.0920634568, -0.2102343589, 0.2035813928, -0.0709543303, -0.0245117340, -0.0105050011, -0.1917025149, -0.1584098339, -0.2766511142, 0.0003916418, -0.0434165783, 0.0904175863, -0.0554350875, -0.1545214355, -0.3092430532, -0.0050538476},
            {-0.0158720352, 0.0375057943, -0.2880356014, 0.3892239332, -0.3549390137, -0.3144218624, -0.0039619347, 0.0896973908, 0.2537743449, 0.2711228132, -0.1542320549, 0.0300791189, 0.3377513885, 0.3356812000, 0.0763366967, -0.1032386944, 0.0411749706, -0.2823088467, -0.1988355219, -0.1499746591, 0.2518669069, 0.1190110147, -0.0857949257, 0.0164808501, -0.0105759883, 0.0832583010, -0.1998708695, -0.2868555784, -0.0848936811, -0.0889903083, -0.1876270622, 0.0488762036},
            {-0.1574309021, 0.1314744353, 0.1619977206, 0.1119053811, 0.0774186701, 0.1250656247, -0.0588770546, 0.0527606159, -0.1195709705, -0.0387197658, -0.0380832739, -0.4155739248, -0.3705332279, 0.2218706161, 0.2314544469, -0.1278699934, -0.3063127100, -0.0249110945, -0.0773518384, 0.3552149534, 0.3447913229, 0.0302126203, 0.0366800390, -0.2298118919, 0.0799036771, -0.3471387625, 0.0481234491, -0.0758827254, -0.2090979218, 0.1333765239, -0.0732300058, -0.1636422575},
            {-0.0516006723, -0.1398557872, 0.0993644595, 0.1287472397, -0.1044440269, -0.1151512638, 0.0280025899, -0.0295746159, -0.0826753378, 0.0921014696, 0.0045430684, 0.1330371052, -0.0445043072, 0.1044754907, 0.1808999479, -0.0819352344, -0.1415465772, -0.1509187073, -0.0662673712, 0.0964819938, -0.1091741398, -0.0538838618, 0.0090355696, -0.1525225043, 0.2227150649, -0.0058992659, 0.2110336870, -0.1410899907, 0.0229738317, -0.1714602113, -0.2572432160, -0.1705333740},
            {0.2750630379, 0.1255279481, -0.2885898650, -0.2064875662, 0.0903750807, -0.0892751589, 0.1417645812, -0.1897599995, 0.0087065455, 0.0383020528, 0.0336003117, -0.0495845713, -0.0512366258, 0.0777054876, 0.0653267205, -0.0714638978, -0.0602130145, 0.0095596472, -0.2929675877, -0.0604098663, -0.1602228880, -0.1775271297, -0.0957834721, -0.0240269434, -0.1452023834, -0.2259088457, 0.0171632990, -0.5525267124, 0.0348006375, -0.2935287356, -0.0145287719, -0.0877892748},
            {-0.1404682845, 0.1707229316, 0.2298078388, -0.0518260710, 0.0041003749, 0.1897064149, 0.0727275014, -0.1051229388, 0.0375425555, 0.0724034235, 0.0414516814, -0.2929704785, -0.4694736004, 0.1640938222, 0.2663590014, -0.1119316220, -0.1824298203, -0.0733375922, -0.1870346665, 0.1684808880, 0.2475811541, -0.0726288855, 0.1185986921, 0.1644335091, -0.0140732126, -0.2913495004, 0.1403608918, 0.1410231590, -0.2652744949, -0.1593132019, 0.1221068278, 0.0406742617},
            {0.0051943762, -0.0227291901, 0.1771978587, -0.0584894456, -0.0979893655, -0.2008006275, 0.0676218718, 0.2330444157, -0.0393794067, -0.0037378457, -0.0299519375, -0.0934273675, -0.1970897168, 0.1602837443, 0.1815536469, 0.0597566329, 0.1217704862, -0.0974000990, 0.0564545318, 0.1140522063, -0.1404561698, -0.0759135485, -0.1307914257, -0.0297761336, -0.0865884721, -0.0648420602, -0.1034505963, 0.0065294942, -0.0113586187, -0.0773294643, -0.0673886761, 0.0618936121},
            {-0.1038269773, -0.0849556401, -0.0467165634, 0.1331634074, -0.0478327014, -0.2329884917, 0.0577340461, -0.3232496679, 0.0905200541, -0.2999454737, 0.0068466854, -0.2078002542, 0.0037001099, 0.3617145419, 0.0954719037, 0.1274278462, 0.2906128764, 0.1281244308, -0.1317225546, -0.1515089571, -0.0942867100, -0.1554609090, -0.0849536583, -0.0491627678, -0.0822907910, -0.0287068374, -0.2394166142, 0.1370898336, -0.0186872110, 0.2776425779, -0.0261765532, 0.0466875657},
            {-0.1365659237, -0.1081934944, -0.0669739768, -0.2797392905, -0.0072277719, 0.0869846269, 0.0455407761, -0.2198369950, -0.1283683181, -0.0678733513, -0.0625685155, 0.0779260546, 0.0820783302, 0.1468755007, 0.0934124961, 0.0539448224, -0.0195764191, 0.1918166727, -0.1601297408, 0.1370093822, -0.2441162765, -0.2337754220, 0.1461053044, 0.4329291284, -0.2704534233, -0.0698416531, 0.1372628808, -0.0988668948, 0.0756234378, 0.0223213937, 0.1570039988, -0.0503001846},
            {-0.0848324075, 0.1406425983, 0.0184355527, 0.1303203404, -0.0672766417, -0.1500653327, -0.3093670011, -0.1963410378, 0.0435199998, -0.1130444556, -0.0308056045, -0.0980797186, -0.0334048308, -0.4130681455, -0.0638474971, -0.1570150107, -0.1251227111, -0.2457342744, -0.0253815074, -0.1138620451, 0.0734401569, -0.0410882309, -0.0974419862, 0.2069277018, -0.0490787067, 0.0032190941, 0.0808383822, -0.1379129887, -0.2086477429, -0.2477732152, 0.0498488508, 0.1076997891},
            {-0.0058121691, 0.0279945992, -0.3190565705, -0.0780154318, 0.0124162687, 0.1980188787, -0.0768509433, -0.2254674286, 0.0542604886, 0.2896100581, 0.2830524743, -0.3318593800, 0.1116953194, -0.0893066004, 0.1464976966, -0.0561858453, -0.2873336971, -0.0370223261, -0.0840407610, -0.3847278655, 0.1404042691, -0.1019269153, -0.0472170413, 0.5390222073, 0.0134122996, -0.1135841310, 0.0874859095, 0.0450738259, -0.1203241423, 0.1512651443, -0.0142198624, -0.0130615765},
            {0.0771864727, 0.2499597073, 0.2414732277, -0.0904871076, -0.0283292253, -0.0078176530, 0.0170871206, 0.1988337040, -0.0287725534, 0.1699228287, -0.0652055815, -0.1941167712, -0.0032922262, 0.4701699615, 0.0422777571, 0.1409760118, -0.1802718937, 0.1863406897, -0.0026019078, -0.2564828396, 0.0276282094, -0.2957210243, -0.2498364896, 0.1233046204, -0.1491924077, 0.1155146733, -0.0306067225, -0.2621191740, -0.0505743176, 0.4260103703, -0.0059032864, -0.0321356766},
            {0.1973615140, -0.2651445568, -0.0167004187, 0.0826585814, 0.1012871191, -0.0890690684, -0.6285493970, 0.0366929211, 0.1107768863, -0.2083952129, -0.0102419406, 0.0304708015, 0.0292163137, 0.1910985559, 0.2501938343, 0.0055475933, 0.1890558898, 0.0038697578, 0.1298273802, -0.1754306257, 0.1103902236, 0.1573991477, -0.3417576253, 0.0653700903, -0.0793688446, 0.0491327755, 0.0730361268, 0.0909649208, 0.0855101570, -0.3549286127, -0.3306007981, 0.0985598713},
            {-0.1222963855, -0.1651114821, 0.0718294233, -0.1202939972, -0.2696661651, 0.1312331557, -0.0394993424, -0.0805947408, 0.0192846041, -0.0137132751, 0.2641814053, -0.5643216968, -0.4644270539, -0.2964967489, 0.1858433187, -0.2617281675, 0.1322409958, 0.1943896264, -0.0791367069, 0.0986362547, 0.0837958008, -0.3197124004, 0.0877029747, -0.0357825644, 0.0580896996, -0.1899365485, -0.2587158084, 0.2885440886, 0.1394793242, -0.0430982038, -0.0035454927, 0.0264582504},
            {0.1107853651, 0.0298544243, 0.2761178911, 0.5165026784, -0.1590381861, -0.1572028548, 0.2718497813, -0.2301351130, -0.1398603320, -0.3065084815, -0.2290346771, 0.0690016672, -0.0413864516, 0.4720181823, 0.1229442954, -0.0908322930, -0.2852753401, -0.6503835917, -0.2311318815, 0.2044356018, -0.0453490019, -0.0252840985, -0.0865628719, 0.0281083789, -0.1795137525, 0.0444748104, -0.0528532900, -0.0947524309, -0.3977363706, -0.1989623159, 0.2079744339, -0.3158843517},
            {-0.3331204057, -0.1865269244, 0.1561801881, -0.0268423483, 0.1326418221, 0.0547986105, -0.1685586572, 0.0526045859, 0.0731257126, -0.0995305330, -0.0147516709, 0.0907462537, -0.1057478338, 0.2110770494, -0.0278687477, 0.1167221442, -0.0172715820, -0.2712420821, -0.1075346023, 0.0867518783, 0.0395061038, 0.0767124593, -0.1685276181, -0.0494846813, -0.1242817342, 0.0284951162, 0.0084444862, -0.1711609513, 0.0247835573, 0.2661921382, -0.0670939162, -0.2971675694},
            {-0.1203497499, 0.1008348092, -0.0519625284, 0.0560522191, 0.1339009851, 0.0156559739, -0.3158411980, 0.1116019785, -0.0083562667, -0.1471012831, 0.0906182975, 0.1396226287, -0.2426792383, -0.3546907306, 0.3003272116, -0.0676861033, -0.0961977169, -0.0821494162, 0.0739243999, 0.1836814433, 0.1098878682, -0.2474275529, 0.2070835829, -0.1692039222, 0.1059237793, -0.1325720698, 0.1446612775, 0.1452758610, 0.0481341369, 0.1497981101, 0.0706998855, -0.0660612881},
            {-0.1254729480, -0.1306144148, 0.1287434101, 0.0051792902, -0.1238650680, -0.0425249152, -0.1791098565, -0.2405755669, -0.2092290372, -0.2634046972, -0.0564388745, -0.1531131864, -0.2146876156, -0.0637472272, 0.1342514902, -0.1206318960, -0.0395312123, -0.0953713134, 0.3012485206, 0.2388549745, -0.1791132390, 0.0945304036, 0.1755587161, -0.1995314807, -0.0280296542, -0.0188481063, -0.1026007757, 0.0719161630, -0.0540763959, 0.0267713219, -0.1068008244, -0.0964733809},
            {-0.0422368087, -0.1451740712, 0.1572128683, -0.0026845210, 0.2292272002, -0.0012061810, 0.1328982711, -0.0132771935, -0.1702830940, -0.2405459434, -0.3668703735, 0.0723418221, -0.2457528412, 0.2653099597, -0.0683179572, -0.0416620709, -0.0895039067, -0.0464158170, -0.0481885038, -0.0082049547, -0.1553564370, -0.0963517055, 0.0328937732, -0.1966987699, -0.0073946975, -0.1433670968, 0.0917741507, -0.2442359477, 0.0805540755, 0.1267922372, 0.1053360179, -0.2970559299},
            {-0.1076276228, 0.0778878853, -0.0667066425, -0.0735649318, 0.0632290393, 0.0961228833, -0.0886817798, -0.1446756870, -0.0390266739, 0.0871009678, 0.3219174743, -0.4926551282, -0.0187721215, -0.1067059487, -0.0098043438, -0.0880776420, -0.0351491012, -0.1987586617, -0.1550678164, -0.3241403401, 0.1745299250, -0.1392782629, 0.0556183048, 0.3263516426, -0.0885960534, -0.5724163651, 0.0764578506, 0.1213279814, 0.1208130643, 0.0153535176, -0.0767728537, -0.0997207239},
            {0.0656194538, -0.1271561831, 0.1436737627, -0.1509389132, 0.0563710928, 0.0834677666, -0.2539507151, 0.0844341740, 0.0689798370, 0.0697552338, -0.1077811867, 0.0506827533, -0.0098452177, -0.0069714906, -0.0201424062, -0.1109687239, 0.1596213132, -0.0409198739, 0.0103654796, -0.0012006166, -0.0179408193, -0.0857466236, -0.1251657456, -0.1524381191, 0.2166982740, -0.1631621867, 0.0644657910, -0.0386874825, -0.0551716164, 0.0107348068, -0.0544450060, -0.0223920159},
            {-0.2800939083, -0.0301014315, -0.3712805808, 0.1326352954, 0.1306178868, -0.1041917875, 0.0813245550, -0.0444155857, 0.2132426798, -0.0130824232, 0.1069389209, -0.3106750548, 0.1544452906, -0.2537390292, 0.1902882308, 0.0230296440, -0.1102427766, 0.0092378147, -0.1301334351, -0.3234980106, 0.0587276220, 0.1280932426, -0.1031746492, 0.1600296795, -0.0524849929, -0.0877864435, 0.1983330697, -0.0730858818, 0.1107352450, 0.0038150917, -0.1508711725, 0.1142954752},
            {-0.0063832477, 0.1800055504, -0.1271398365, 0.0506150723, -0.2533096373, 0.0938160494, -0.0434736013, -0.0513329543, 0.0234107375, -0.2281936109, 0.0413785763, -0.0559463836, -0.1785643250, 0.2407996207, 0.3570992351, -0.1155001968, -0.0078537026, -0.1450937390, 0.2741668224, -0.1955230981, -0.1012120098, -0.1874448210, 0.0623568967, 0.0733841360, 0.1544293314, 0.0209780205, 0.1905921251, -0.3696916699, -0.1464706659, 0.0228304528, 0.0375619605, 0.1215744168},
            {0.1774079800, -0.0384638608, 0.0169287454, -0.2465247512, 0.0345397033, 0.1591154486, 0.0753579065, -0.1246406734, -0.0703133345, 0.0121908970, -0.1517066360, -0.1566342413, -0.2539859116, 0.3797647655, -0.1970392466, -0.0219687130, -0.0940924734, 0.0795513466, -0.0220186859, 0.0406152941, 0.1311867833, 0.1179468706, -0.0388745628, 0.3714605868, -0.4974345565, 0.1079540551, 0.0665711761, -0.0996613652, 0.1701091230, 0.0396019444, 0.1074221581, -0.0490418412},
            {0.1164129674, 0.1037354022, -0.0764253810, -0.0464889333, 0.0990372226, -0.0962169617, -0.0431529507, 0.0845063701, -0.1632903963, 0.1544840783, -0.0230038557, -0.7067949176, 0.0093416544, -0.3619448543, 0.1083744317, -0.0711335838, -0.3358970284, 0.0919914544, -0.0391329750, 0.0934767500, 0.1744632423, -0.1369198859, 0.0196435098, 0.2088414729, 0.0622791015, 0.0202701762, 0.0668781325, -0.0093956683, 0.1023762375, 0.0996203572, -0.2936287224, 0.1047512218},
            {-0.0475088470, -0.0677384064, 0.0636680797, 0.0857584849, 0.1491810381, -0.0248812437, 0.1997701377, 0.0888869241, -0.2043884397, -0.2014274001, -0.0141687905, -0.1365115196, 0.1086282581, 0.0509225912, 0.1622138619, -0.1203652546, -0.1314473301, 0.1384547502, -0.3603980839, 0.4799350500, 0.0033374680, -0.0753554106, 0.0547710583, -0.1860824227, 0.1978988796, -0.0810867921, 0.1976895630, -0.4270066321, -0.1899080426, -0.1659405977, -0.1374815851, 0.0144088464},
            {-0.0930443332, -0.2436645329, -0.0078261038, -0.1008532345, -0.0804481730, 0.0853745788, 0.0274059381, 0.1597301960, -0.0096902531, -0.1714391112, -0.0116087738, -0.1963976622, -0.0643717349, 0.4736242890, -0.0355962552, 0.2907987833, 0.3692488968, 0.1864352226, 0.2218579799, -0.0013862265, 0.1302440912, 0.0447275601, -0.0964404196, -0.1420378834, 0.1141025349, -0.0767472535, 0.0460299626, -0.2352064401, -0.1353788525, -0.1543470472, -0.0343614928, 0.0184928291},
            {0.1149203554, -0.2689861059, -0.0850550383, -0.1420744210, -0.1007895321, -0.1761186570, 0.7370622754, -0.2793960571, 0.1213071421, -0.0453676619, -0.0143733928, 0.1241225600, -0.0784932822, 0.1767245084, 0.0555416048, -0.1754731238, 0.3126621842, -0.0233007874, 0.2677081525, -0.1125920266, 0.0093223313, 0.0753998533, 0.0926175341, 0.2475181967, 0.0033182425, -0.0024604294, -0.2732968628, -0.0643339306, -0.1828408390, -0.0593888275, -0.1354903877, -0.2494505793},
            {0.0829809606, 0.0396264978, 0.1339411885, 0.1327976882, -0.0575354435, 0.1069130078, 0.1755564660, -0.2172933817, -0.0271494482, -0.1578818560, -0.1274750382, -0.5067731142, -0.2353174835, -0.4345292151, 0.1914567649, -0.0796533227, -0.2570128143, 0.1305104047, -0.1122338027, 0.0887161419, 0.0368731469, 0.0089391926, -0.4353264570, 0.1351066381, -0.0753203556, 0.2031342238, 0.0733657852, -0.1656876802, -0.0242918693, 0.3330096602, -0.3824418485, -0.2467743307},
            {-0.0878388658, 0.1094091907, -0.0510168970, 0.0632769242, 0.0525688939, -0.0764115527, 0.1694474667, -0.3950174749, -0.0745595023, -0.0954050347, -0.0492933169, -0.2139878720, -0.1696735471, 0.2243356705, -0.1936311275, 0.0502513573, -0.1839432716, 0.0596351400, -0.1547986269, -0.2134948671, 0.1310260594, -0.0653870478, -0.0096869199, -0.0083758067, -0.0003477247, -0.2491119802, 0.0170460995, 0.4057658911, -0.1313340217, 0.0708142295, 0.1344945729, -0.1630516201},
            {0.2153481096, -0.0923193842, -0.0359468088, 0.0428980887, -0.0520594120, 0.1272315383, 0.1736664176, -0.0171242133, 0.2461701781, 0.0731798708, 0.0146755530, 0.2359332293, -0.0121324137, 0.4602874517, 0.3340677321, 0.0577710643, 0.2196338028, -0.0681378543, -0.1205431521, -0.0090656849, 0.0448175371, 0.0961098000, -0.2136492580, -0.0989220887, -0.1712607294, -0.0297476258, -0.0881540403, -0.3208043575, -0.2302580774, -0.0192398876, -0.1889455020, 0.0639750734},
            {-0.1074793115, -0.3730384707, 0.0156904384, -0.3469357491, -0.0870611444, -0.1771912724, 0.0274054445, -0.0129532367, 0.0611952320, -0.1230650917, 0.1202206314, 0.3915618956, 0.3591523170, -0.2328359783, 0.2873173654, -0.1589304209, 0.2477065176, -0.2828319967, -0.2289349735, -0.0353273824, -0.1531564295, 0.1603911221, -0.0680276379, -0.0518367589, 0.1492354572, 0.1909620315, -0.0081838286, -0.2295980603, -0.4668457508, 0.0701427236, 0.0638699904, -0.0356308408},
            {-0.0286781136, -0.1336523294, -0.3009800315, -0.0848987997, -0.1908310056, 0.3645395637, 0.2087839544, 0.2353208512, -0.4801619947, -0.1610093117, 0.1695595086, -0.2133870721, 0.2363803685, -0.2287705094, -0.0488937646, -0.1566951424, -0.0348185711, 0.2739589214, -0.0888645276, -0.1326536089, 0.0457509346, -0.2680781186, -0.5756956339, -0.0495561063, 0.1097246110, -0.2587122023, -0.0784248561, 0.0460619070, 0.0721437782, -0.1660420597, 0.0664869025, 0.0689569712},
            {-0.3774191141, 0.0505938567, -0.2037479430, 0.0333653837, 0.0611360036, -0.0791503489, -0.1207878217, 0.0214542113, -0.0440792628, -0.1508172005, -0.0959320068, -0.0730504319, 0.2327630520, -0.4061121643, -0.2532307804, 0.0422146097, 0.0069447267, -0.1558844149, 0.2451740056, 0.0492345914, 0.0345694013, 0.0882222727, -0.0627195090, -0.1031653136, -0.0486802980, 0.2763330936, 0.1165440232, 0.1347246021, -0.0516876467, 0.1923617870, 0.0479312204, -0.0327665545},
            {-0.1419815719, -0.1621092558, 0.0846953541, 0.3440984190, 0.1280772090, 0.0334096886, 0.0295916740, 0.0611053221, -0.0119739939, -0.0619978197, -0.1431128979, -0.1126839072, -0.2389285564, -0.1082683951, -0.0427461118, 0.0029729027, -0.2084545940, 0.1871461719, 0.0994276255, -0.1639410108, 0.0176451821, -0.2042332888, -0.1149667576, -0.2287850976, -0.1781391650, -0.0707580000, -0.0244379435, -0.1386362463, 0.2216940671, 0.0995154977, -0.0795166492, -0.0559860468},
            {-0.1622207165, 0.0918453261, 0.0950613394, 0.1507579684, -0.0132834753, -0.1835959405, -0.0058814031, 0.0556487367, 0.0186386164, -0.4903793931, -0.1272802651, -0.2724400163, -0.4177016318, -0.1858590841, 0.0391866826, -0.2446917444, -0.1035013124, 0.0369573049, 0.0412020087, 0.1608999968, 0.0651607886, -0.1439908743, 0.1794540435, -0.1739884168, 0.1558621377, -0.0781141892, 0.0479223169, 0.0498586632, -0.0638635382, 0.3684603572, 0.2855934203, -0.0115407640},
            {-0.1115501449, -0.1489968002, -0.2317331880, -0.1894392818, -0.0756594762, 0.1779115498, 0.0874048248, -0.2365710288, 0.0042729969, -0.1639300436, 0.2766913474, -0.0367873274, -0.1126342341, 0.2234561145, -0.1321314573, 0.2265934944, -0.0253765713, -0.0766158327, -0.3118474185, 0.0287096910, -0.1613509357, 0.1097387746, -0.2373302430, 0.1226403788, 0.2185954601, 0.0094325710, 0.0718336999, 0.0948921740, -0.0309867524, 0.0019916177, -0.1152390167, 0.0776545256},
            {-0.1189739108, 0.1049664840, -0.2225016207, 0.1957768351, 0.0134636788, -0.0573134646, -0.0192343295, -0.1352057606, -0.0313488096, 0.2205785811, -0.0356206931, 0.0313136838, -0.0131035363, -0.0696045533, -0.1562383920, -0.0375762694, 0.0327273943, 0.0087777236, 0.1214036047, -0.0860997438, 0.0196970087, -0.0913558602, -0.0155036077, -0.1427379996, -0.0312499199, -0.0109009463, 0.0721189156, 0.2548781335, 0.0026149855, 0.0950199813, -0.1775127649, -0.2089568973},
            {-0.0595768318, -0.0231049620, -0.0025733956, 0.1166247353, 0.0220356118, 0.0717981607, -0.0977932811, -0.2635276616, -0.0165542550, -0.2077503353, 0.0154478094, -0.1446371377, -0.4248041511, -0.1764646471, 0.0198062379, -0.0636740178, 0.1927554607, 0.1497455835, 0.0238789953, 0.2534515560, -0.0150068616, -0.0598658025, -0.2240165174, 0.2348350585, 0.1579212546, -0.3369576037, -0.1118890271, 0.0918264836, -0.0916901082, 0.1078729182, -0.0827206448, 0.1585778445},
            {-0.3217680752, 0.0522369817, -0.0986694396, -0.1060934216, 0.2643263340, -0.0439957492, 0.0200956780, 0.1505337656, -0.1318808943, 0.2361605167, -0.0111777289, -0.5294734836, 0.0554115586, -0.2012565285, -0.3185183704, -0.0298303459, -0.1572736204, -0.1237210557, -0.2618819177, 0.0154871419, 0.2122889459, 0.0386268944, -0.0797580481, -0.0574830696, 0.0397056825, -0.1908953339, 0.0841151550, 0.2443351001, 0.0278307404, 0.0424109995, 0.1661507189, -0.1214394420},
            {-0.4534335434, -0.0734137297, -0.1491855830, -0.0058017634, 0.0110221133, 0.0276827812, -0.2280814499, 0.2111729234, -0.1235449538, -0.2963137031, 0.0846847966, -0.4504242241, -0.4458460808, -0.3282525539, -0.0677027404, -0.0994045585, 0.0231882297, -0.1424987316, 0.1232565790, 0.0874785334, -0.0734523609, -0.1936829686, 0.0811215043, 0.1649237424, -0.0975163728, -0.4483096302, -0.0225241985, 0.2420462966, 0.0247195065, 0.2168969214, -0.0823365152, -0.1229404956},
            {0.1592839956, -0.0261913333, 0.0525999852, 0.0877510160, -0.0631681010, -0.0057590804, -0.3859709203, 0.3574094176, -0.0123167913, 0.1122618020, -0.1554723978, 0.0813548639, -0.0593053587, 0.0066504995, -0.0228960011, 0.0867416561, -0.3035335541, -0.0431628861, 0.2888403833, -0.4244895875, 0.0255875289, -0.1195909083, -0.0401722305, -0.3140290380, -0.0756846368, -0.0914440006, -0.0754787549, 0.0447787903, -0.0160449836, -0.2258102596, 0.0106739374, 0.0601055697},
            {-0.0986175686, 0.1379524469, 0.0178595986, 0.1248491555, 0.1179616302, -0.0266327783, 0.3242160976, -0.0357368067, 0.2763003409, 0.0327520929, -0.1646381766, 0.0205927230, -0.0768610761, 0.3004819453, -0.1791703552, -0.1096377373, 0.2244375795, -0.1300485134, 0.2027334273, 0.0918354541, 0.0832455233, -0.1511918753, -0.1437231898, -0.2258213013, 0.0246182531, -0.1848980039, -0.0078388546, -0.0931897387, -0.0178497378, 0.0782641694, 0.2979026139, 0.1375783384},
            {0.1472959816, -0.1994024664, 0.0897780433, -0.3377408385, 0.0627914816, 0.0787759423, -0.4228571951, 0.0569391474, -0.2260018736, -0.2466341704, 0.1399763972, 0.1306716949, 0.2152471542, 0.0750080198, 0.0768655017, -0.2255701125, -0.1354049295, -0.4476538599, 0.3678712547, -0.1707408130, -0.1430289745, 0.0650470480, 0.2050073296, -0.0938175768, 0.7645535469, -0.0093696434, -0.1725853682, -0.1387728155, -0.1726738513, 0.0396074280, -0.3188658059, 0.0665602610},
            {-0.1039055139, -0.1384909898, -0.0835637599, -0.0451879352, -0.0389084145, -0.0447181687, -0.0287238769, -0.1257436872, -0.0388952456, 0.2726006210, 0.2971187830, -0.4209423363, -0.0360872224, -0.4951890707, 0.1055952907, -0.1645764560, -0.6394858956, 0.0645054877, 0.0771901831, 0.0933864713, 0.1219902635, -0.0551753901, -0.0152070988, -0.1687023044, 0.0042661699, -0.1518913805, -0.0890191793, 0.1540103555, -0.0288743116, -0.2033864856, -0.1165697202, 0.1579157710},
            {-0.0310994163, -0.1604540348, -0.0828760043, -0.0592096783, 0.0858863071, -0.3075609803, 0.4099378884, -0.1767759025, -0.0455407239, -0.1086451262, 0.1085039303, 0.2489437908, 0.3031324446, -0.0748318881, 0.0263178982, -0.0923028365, 0.2421254069, -0.2872890532, 0.0204807650, 0.1237512007, 0.1757841706, 0.3190889955, 0.0915462971, -0.2034975141, 0.0196446087, 0.2204086632, -0.1263629645, -0.0192265995, -0.1040694863, -0.3409647942, -0.2950493097, -0.1290768981},
            {0.1787593961, -0.2924638987, 0.0236268938, 0.0959149376, -0.0913265720, 0.1612035185, -0.0924679413, -0.0378486663, -0.0905926526, 0.1569973528, -0.1626146287, 0.2356636524, 0.2016765475, -0.2356958538, -0.1615331620, 0.0599465109, -0.0649034530, -0.3966157436, 0.5163142085, -0.0526351891, -0.0479399636, -0.1696668714, -0.2384279966, -0.0703491196, 0.1793342978, 0.0509621464, -0.0017087129, 0.0480052009, 0.1672080308, 0.0202004667, -0.0815125853, -0.1531227231},
            {0.0718821287, -0.1243595332, -0.2238882929, 0.0012247363, -0.2016832978, -0.1304851174, -0.0173031166, -0.3353513181, 0.1478436887, -0.2038175613, 0.0626663864, 0.3076667190, 0.2103805244, 0.2740726769, 0.0214428324, -0.1693966240, 0.0289831962, -0.5279328227, 0.0430732556, -0.0864522681, 0.1001237929, -0.1753170937, -0.0445783176, 0.1988392025, -0.0666359290, 0.0184177589, 0.1998364776, -0.3140517175, -0.3647898436, -0.1063411385, 0.0405683778, -0.0311076883},
            {-0.0665459931, -0.0456951186, -0.2037006468, 0.0067751897, 0.2728663981, -0.1043753549, 0.2546491921, 0.2320618927, -0.1360954344, 0.0466133095, -0.0318214521, -0.1153795570, -0.0477495268, 0.1113153547, 0.2326974124, 0.1861056834, 0.2474196255, -0.0369702019, 0.1665204912, -0.1921646446, 0.0140239550, 0.0926475674, 0.0957823247, 0.2740313709, -0.0399407521, -0.0475961640, -0.0521939844, -0.0190966409, 0.0414619595, -0.0842607319, -0.0443990156, -0.0140222982},
            {0.0462902933, 0.0503968671, -0.1449574679, 0.0238313973, -0.2110561281, 0.0747252405, 0.1240565255, 0.1186579764, 0.1384024322, -0.0502933487, -0.0496711694, -0.0009083431, 0.1843329519, 0.0221997853, -0.0145642869, -0.0550199673, -0.3011814952, -0.0094195558, -0.1156356856, 0.1201798916, -0.0637819022, 0.1258941442, 0.0494124405, -0.0788620263, -0.2484590709, 0.0434482619, 0.2155823857, -0.2656631768, -0.0934516713, -0.1062934473, 0.1090627238, 0.1502885222},
            {0.0280258395, 0.1346841604, 0.0813885480, -0.2315951288, 0.0990180448, 0.1062845439, -0.2040755004, -0.1676378697, 0.0888028145, 0.0212106220, 0.0457699411, 0.0586215854, -0.2127507925, -0.4158565402, 0.5320420861, -0.2520557642, 0.1366734505, 0.2074773014, -0.1694189161, -0.0188899338, 0.1180176511, 0.1685074568, -0.0331376716, -0.1708128005, -0.1509914547, 0.0552080832, -0.0251120180, -0.4295891225, -0.0821777955, -0.0744616538, -0.0313010663, 0.1513121128},
            {-0.1168575883, 0.0039916295, -0.3333567381, 0.0106681623, -0.2094290257, -0.1930570155, -0.1096994802, -0.2846002281, -0.1311471015, -0.2109491825, 0.0199292507, 0.1716344506, 0.0443258770, 0.4160750508, 0.1468948871, -0.1038361043, 0.0095288549, -0.4531744421, -0.1379996836, 0.0895546451, -0.0122919176, -0.1335009336, 0.1783047765, 0.2001728714, -0.0342622772, 0.0444697142, -0.0961212814, 0.0397659317, -0.3461743593, 0.0242283940, -0.0329692475, -0.3326973617},
            {0.0406249985, -0.0776872635, -0.1300079525, -0.1138201952, 0.0590617284, -0.0775376931, -0.1416960806, 0.0315439962, -0.2951725423, 0.0254777819, 0.2140316963, -0.1338023543, 0.0917982534, 0.0098607857, 0.1194767877, 0.1752135903, 0.1936842799, -0.2682168484, 0.0895950943, -0.1704889238, -0.0241815317, 0.0277223084, -0.0152270505, 0.2513093948, 0.1305094212, 0.0565992631, -0.0057931170, 0.0436999276, -0.1992420107, -0.2347965539, -0.2078094035, -0.0617951006},
        },
        {
            {0.0678422004, 0.0270013195, 0.0758050680, 0.0342232920, 0.0858125389, 0.0824974999, -0.2372139990, 0.1429971308, 0.0483073480, 0.3255496621, -0.3413729072, -0.0127747757, -0.0318833441, -0.0864526778, 0.1138317138, 0.1742967665, 0.0253213327, 0.0549324155, -0.0515361167, -0.1685887128, 0.0037861888, 0.1712493896, 0.1086140797, 0.2268790305, -0.1633090973, -0.0847944990, 0.2056982219, 0.0986059979, -0.2609480023, 0.2309990525, -0.1514290869, 0.1702918410},
            {-0.0723145530, -0.0491794124, -0.0167206842, 0.1686354727, -0.0081899641, -0.0028773188, -0.2230052799, -0.0180159323, 0.1115140542, 0.1897804588, 0.1970486939, 0.1667118371, 0.0022211247, -0.0852408260, -0.0137648191, -0.1157959774, -0.0679508075, -0.3528718948, -0.0225561243, 0.1368466914, 0.0556603149, 0.0457605869, 0.0233397894, 0.0796258673, -0.1101746634, -0.0545965806, 0.0359784961, 0.3272465169, -0.1593935639, -0.1826316565, 0.1526013762, -0.0964449346},
            {-0.2698399425, -0.1132837161, -0.2203860581, 0.0624912940, -0.0352907740, -0.0547783710, 0.2309966683, 0.0697446764, -0.1083233654, -0.2776533961, -0.0554170012, -0.1830989569, -0.2930894494, 0.2161107063, -0.3137994111, 0.3106995225, 0.0258438643, -0.3424132168, 0.0453379005, 0.0167799015, 0.0109018674, 0.0172447059, 0.1816665083, 0.3383076489, -0.6114917994, 0.0330706798, 0.4108158052, 0.1900113821, -0.1783190370, -0.1411096603, -0.0909384489, -0.1888611615},
            {-0.0352305509, 0.0045459149, -0.1431674063, 0.2796780169, 0.1516373605, 0.0550585687, 0.0944655538, 0.0678192601, -0.1138119623, -0.1933899224, 0.1741341203, 0.0970750600, -0.2476955205, -0.1834064424, -0.1426587999, -0.0522511378, -0.2276529521, 0.0155716324, 0.2736599743, -0.0185970161, 0.0832167193, -0.2330909818, 0.2161940038, 0.4907597899, -0.0848301873, -0.2824592888, -0.0820878446, -0.1294257045, -0.2115022987, 0.0352100842, 0.4836705625, -0.1533593088},
            {0.3831010163, 0.2130312026, 0.0203640107, -0.2234187424, 0.0386081226, -0.1653590053, 0.1647935510, -0.0396387801, -0.0123217534, 0.2449158728, 0.0479585417, 0.0113189900, 0.0263934359, -0.2836006582, 0.2536605895, 0.1283481419, -0.2956236601, -0.0750897601, 0.1360557973, -0.1849777848, 0.0823308751, -0.2128548026, 0.0688492954, 0.0960830376, 0.0504531786, 0.0741855651, -0.0456118882, -0.1185754165, -0.3541928828, -0.0923865885, -0.1434406191, 0.1597374380},
            {-0.2184054554, -0.0134271868, 0.0599080101, -0.2780147493, 0.0731672868, 0.0866187885, 0.3360730112, -0.0209383108, 0.4719892144, 0.0653938279, -0.1029980034, 0.1155605689, 0.0238126051, 0.0877915174, -0.3112003207, -0.1880339086, 0.2495973706, -0.1091650426, -0.0283861682, 0.1251314431, 0.1269946098, 0.0045258328, 0.0317572504, -0.1089067385, -0.2225470990, -0.0642841384, 0.1932767034, -0.0254745595, -0.2072409689, 0.0601195581, -0.0016351751, -0.0696915388},
            {-0.2965283096, 0.5876480341, -0.1166593209, 0.1293495744, -0.0994973183, 0.1704873145, -0.3055442572, -0.4792112112, -0.1711362600, 0.5702506304, 0.0323297158, 0.0557051636, 0.0505376570, 0.1614250541, -0.1665240824, -0.5423493981, -0.1876932383, 0.1919506937, 0.0787937418, 0.0666963160, 0.1004571393, 0.2828915417, 0.0616768152, -0.3047977984, 0.2351282388, 0.3148336112, 0.1266784221, -0.1571900994, -0.0442744233, -0.1819158494, -0.0358320549, -0.0647340566},
            {-0.1578240544, 0.0000126075, -0.1211324632, -0.2043804675, 0.0588912331, 0.0375590771, 0.1983021349, 0.0693883747, 0.0363572612, -0.4344061017, -0.2504740953, -0.2892270982, 0.0235478152, -0.1469749957, 0.1543833911, 0.2956738770, 0.4341997206, 0.1627777815, -0.2796152532, -0.1120239049, -0.0227741264, 0.0217818990, -0.2161446363, 0.0908752456, 0.0792204961, -0.0792856514, -0.0789014548, -0.4261037707, 0.0314319022, -0.0229001138, 0.1681620777, 0.2715755999},
            {-0.3157106042, 0.1563362479, -0.0771446526, 0.0822406039, -0.2187339664, -0.1687553823, 0.1301820129, -0.1324852556, 0.0862169117, -0.0502706617, -0.1981963068, -0.3513029814, -0.0240689814, -0.2465991229, 0.1474692672, -0.0831306279, 0.3056366742, 0.4886750281, -0.1210325286, 0.0252034012, -0.1506859958, 0.0209705550, 0.0578039959, 0.3327223361, -0.0175697487, 0.0876983330, -0.3583486378, -0.0963699296, 0.1931064427, 0.0545497350, 0.0935815349, -0.1602106541},
            {-0.1351900697, -0.2235158235, -0.2384789139, 0.1527909487, 0.0517124571, -0.1373407096, 0.0141244205, 0.2726528645, -0.1233395413, 0.0992949829, 0.0616270900, -0.1847259104, -0.0276777912, 0.6085418463, 0.0338931978, -0.1816416532, 0.1743994206, 0.2437163889, -0.1611789912, -0.1710787565, 0.0054453202, 0.2637265325, 0.0119315917, -0.0178402830, 0.2583496273, 0.3498679101, -0.3395633101, -0.0968682319, -0.0892523155, 0.0226311646, -0.0159193091, 0.4587585330},
            {-0.0873235464, -0.0590393096, 0.2559358180, -0.0612751059, -0.3552196622, 0.2626428306, -0.1272992790, 0.6005138159, -0.1703253388, -0.0512691438, -0.3702937961, 0.1165599450, 0.0808458328, -0.3005647361, -0.0423975252, 0.1812874228, -0.2599907815, 0.0493193045, -0.0113453139, -0.1752362549, -0.1739266664, -0.0311707649, -0.1792672873, -0.0594365895, -0.0777017549, -0.0405207127, -0.3264380097, -0.2469933480, -0.0310095809, 0.1087036058, 0.1881677061, -0.2057439834},
            {-0.3432801962, 0.0329054892, 0.0946005881, 0.0130618047, -0.1154175848, 0.2075613290, -0.0122771356, -0.0295826960, -0.0210386571, 0.0140164271, -0.2890236080, -0.0912692100, 0.0129292347, 0.0571145378, -0.2866463065, -0.2222281396, -0.0982772037, 0.2465125173, 0.1526263505, -0.1563272178, 0.0842772201, -0.0772756115, -0.2626266778, -0.1715326160, -0.1394545436, -0.0387443751, 0.0371428728, 0.2051523030, 0.0463270545, 0.1421932429, -0.1294103116, -0.0305203255},
            {-0.0265860148, -0.0179424100, -0.2566407323, -0.3114244044, -0.1161271930, 0.1552047431, 0.0880444124, 0.0590948462, -0.0459353775, 0.1341966987, -0.0770509243, -0.2090947926, -0.0682444349, 0.3393856883, 0.1710195392, -0.2603093386, -0.1122922897, 0.1296081543, -0.0018021720, -0.1711722761, -0.0506818704, 0.0867110640, 0.0882149339, -0.0919941589, -0.0429571830, -0.0935704187, -0.0579820871, 0.0926782340, -0.2590411305, 0.0026839145, 0.0613223873, 0.3493877947},
            {-0.1478780657, -0.0464767180, 0.1485567093, 0.1795114726, -0.0592585951, 0.0908354521, -0.0880722851, -0.1793394387, 0.1285504103, 0.1649914086, 0.1667201668, -0.1549877822, -0.0795198306, -0.3005360365, 0.0498079695, -0.2272527218, -0.0775310919, -0.2358749807, -0.0107425721, 0.0917663127, 0.0543358773, -0.4099108875, 0.1458155811, 0.5178449154, -0.2037958801, 0.0227156337, 0.3650256693, 0.1738462001, -0.0508617982, -0.3791405857, 0.0363656990, -0.1827088743},
            {-0.0429683030, -0.0371325128, 0.2130910158, -0.0557986386, 0.0057886541, 0.0978751630, -0.1597436965, -0.2060593963, 0.0771287978, 0.2227239013, 0.1186186299, 0.0949054882, -0.0848696381, 0.0565621555, -0.0097541045, 0.1524943411, -0.2591956556, 0.2357719690, 0.1628735662, -0.0761856958, 0.1019924283, -0.0252681095, 0.1213022396, -0.3051102757, 0.1839882433, -0.0553762913, 0.0819539800, 0.1720167249, 0.0029018153, 0.1255876869, -0.2501393855, -0.2183156908},
            {0.0662217215, 0.1149926782, -0.1352032721, -0.0590289235, -0.0683106035, -0.0416640230, 0.0493931063, 0.2298174351, 0.3688952327, 0.2883259356, -0.0683378503, -0.0030263520, -0.1070179865, 0.0989320129, -0.1351606250, -0.1525951326, 0.1395202130, 0.0866776034, -0.2387438118, -0.0967190489, 0.2286081165, -0.3382063210, -0.0544955097, 0.0177436620, -0.1725257933, 0.1577422768, 0.2044111490, -0.2196057588, -0.1379301250, -0.0116355065, 0.0380118750, 0.1373437047},
            {-0.3142767847, -0.1644148082, 0.1540735364, -0.0116220247, -0.0023413864, 0.0341668800, -0.1196837053, -0.0915535465, -0.0686578676, 0.1088725701, 0.1428242326, 0.0541263670, -0.2850592732, -0.4125643373, -0.0853249803, -0.0725127831, -0.1441135108, -0.0161408372, -0.1484477073, 0.1381743401, 0.3134188056, -0.0584511124, -0.1291328967, 0.2568779588, 0.1137752086, 0.1070420370, 0.1895308197, 0.0067463671, -0.2845560908, -0.2028389573, -0.0225719009, -0.0681200773},
            {0.0906273946, 0.2133269757, -0.1242998093, -0.2546953261, 0.1302558482, -0.3856128156, 0.0340640508, 0.1317441463, 0.0606064461, 0.0108720483, -0.3154706061, -0.1049572453, -0.2224533260, 0.1590875089, 0.4438918531, 0.2891357541, 0.1753703058, -0.3157200813, 0.1215749383, 0.1442141384, -0.0242287740, 0.1391827017, 0.0906025097, 0.0208506398, -0.1492180973, 0.0378483236, 0.0583561696, 0.1017705649, 0.1378299892, 0.1728577763, -0.1363320202, -0.0925977603},
            {-0.0999575332, 0.0643555447, 0.1205281988, -0.2313524783, 0.0860265121, -0.1636353731, 0.0595046021, 0.0388543084, 0.2181079090, -0.3020126820, -0.5700333714, 0.0542861819, 0.1703849584, -0.4328213334, -0.0429823585, -0.1175140515, -0.2355644554, -0.0839761272, 0.1524293870, 0.2546172738, 0.2194044441, -0.2245716304, -0.1487291306, -0.0046443259, 0.0237351134, -0.0646105111, -0.1450352073, 0.0667532757, -0.1091578454, 0.3182240129, 0.0378054641, 0.0151094971},
            {-0.0192439239, -0.1430858672, -0.1208817661, 0.1348220110, -0.0881564841, -0.1316301078, 0.0478073210, 0.0632208809, 0.2053966820, 0.0359112062, 0.3243360221, 0.0315543190, -0.0701406822, 0.1636315882, -0.0677948222, -0.2327459902, 0.0440038368, 0.2672940791, -0.0029815072, -0.0981492028, -0.2262110561, -0.2845834792, 0.1768795103, 0.0170176886, -0.2302000970, 0.0347875133, 0.2659144402, -0.1166846380, -0.0969072357, -0.1647583693, 0.5005009770, -0.1391286105},
            {-0.0305514634, 0.2497139573, 0.1951258183, -0.2123783231, -0.0766952038, 0.0214457978, -0.2075134516, -0.4011369944, -0.1838574409, -0.0992250443, -0.0783970132, -0.0890673473, -0.0588109232, 0.1163345352, -0.1741714478, 0.0127135115, -0.3619323969, -0.0671807751, -0.4320462644, 0.0198794547, -0.1539516300, -0.0320117176, -0.1197607666, -0.1830121279, -0.2144284993, 0.0731021315, -0.0539679863, -0.1070164219, -0.2677887678, 0.0857327878, 0.2717903852, 0.0270179249},
            {-0.1065190881, -0.1331406832, -0.3988928497, 0.2426147014, 0.0853319839, -0.0120172650, 0.0431805253, -0.2621085644, -0.0039379671, 0.0263626203, -0.0393415838, -0.0441042036, 0.0527382270, 0.1760836840, -0.1889147609, -0.1812567562, -0.0295108836, 0.4425646067, 0.1065471172, -0.1668037623, 0.0155809438, -0.0081173852, -0.1390376389, 0.1612847745, 0.3622351885, 0.1257911772, -0.0427759551, 0.0687783062, -0.2174797505, 0.0121786296, 0.2106584013, 0.1676332802},
            {0.1471905559, 0.2063496858, -0.0752578899, -0.1072758809, 0.0590013228, 0.0512340553, -0.2554380298, 0.0908386186, 0.1216383800, 0.4239470661, 0.1105556637, 0.0218850635, 0.1782018691, -0.4796296954, 0.0110551091, -0.0661004782, -0.3373800814, -0.2580216825, -0.0283362661, 0.0878752097, 0.1700402200, -0.2082327604, -0.4475951195, 0.0705320835, 0.1264620125, -0.0238232985, -0.0242670234, -0.0104530370, 0.0677121654, -0.1592593789, 0.0738470703, -0.1321259141},
            {-0.1967157573, -0.1155118644, 0.0450689681, 0.2359315157, 0.3540740311, -0.0748774409, -0.2567037344, -0.0405914560, -0.3598392904, -0.1173133552, 0.0944513530, 0.1693008542, 0.0822423324, 0.3859879673, -0.3100561500, -0.4683682024, -0.0096746553, -0.0358100310, -0.1824180633, -0.0042581651, 0.2309714109, -0.0640432388, -0.2580353618, 0.0551373661, -0.3190233111, 0.0561338738, -0.1211843342, 0.0545368791, -0.0095022256, -0.0106867515, 0.1274045110, -0.1121497527},
            {-0.0398544371, -0.1030961871, -0.0651474968, 0.0293913074, -0.2751591504, -0.1019444391, -0.2413746119, -0.1203486994, -0.0845794901, -0.2069890797, 0.2371300906, 0.1785404533, 0.2515326738, -0.2797028124, -0.3950459659, -0.0982700437, -0.0996795967, 0.0100076469, -0.2205277085, -0.2457686216, 0.2034070790, -0.0606502704, -0.0879324824, -0.0840745345, 0.0927246436, -0.1655345708, -0.2240176201, 0.2032609731, -0.0315276980, -0.1192765459, -0.0964659378, -0.0469046719},
            {0.0821203813, 0.0841514170, 0.2934644520, -0.4626191854, 0.1439230293, 0.1852026582, 0.1678058207, -0.4360211194, 0.0087280888, -0.1821368039, 0.0396801159, 0.1520068347, -0.1129842475, -0.0389773846, 0.1498129517, 0.1020812765, 0.2956037819, -0.3623673320, -0.1419667602, -0.0795588493, -0.1709669828, -0.0895737186, -0.0553453118, 0.0626748726, -0.1454693526, 0.0126784006, 0.2068744004, 0.1689026654, -0.2861275077, 0.2324597538, -0.1340425909, -0.3416275382},
